<?xml version="1.0"?>
<opencv_storage>
<cascade>
  <stageType>BOOST</stageType>
  <featureType>HAAR</featureType>
  <height>24</height>
  <width>24</width>
  <stageParams>
    <boostType>GAB</boostType>
    <minHitRate>9.9500000476837158e-01</minHitRate>
    <maxFalseAlarm>5.0000000000000000e-01</maxFalseAlarm>
    <weightTrimRate>9.4999999999999996e-01</weightTrimRate>
    <maxDepth>1</maxDepth>
    <maxWeakCount>100</maxWeakCount></stageParams>
  <featureParams>
    <maxCatCount>0</maxCatCount>
    <featSize>1</featSize>
    <mode>BASIC</mode></featureParams>
  <stageNum>9</stageNum>
  <stages>
    <!-- stage 0 -->
    <_>
      <maxWeakCount>6</maxWeakCount>
      <stageThreshold>-1.4375891685485840e+00</stageThreshold>
      <weakClassifiers>
        <_>
          <internalNodes>
            0 -1 73 -6.2746912240982056e-02</internalNodes>
          <leafValues>
            5.3623187541961670e-01 -6.3184082508087158e-01</leafValues></_>
        <_>
          <internalNodes>
            0 -1 46 -9.2675971984863281e-01</internalNodes>
          <leafValues>
            -9.4919419288635254e-01 2.6356172561645508e-01</leafValues></_>
        <_>
          <internalNodes>
            0 -1 103 -9.3906763941049576e-03</internalNodes>
          <leafValues>
            5.4041683673858643e-01 -3.2680964469909668e-01</leafValues></_>
        <_>
          <internalNodes>
            0 -1 131 -1.7475168406963348e-01</internalNodes>
          <leafValues>
            1.7498473823070526e-01 -7.1607875823974609e-01</leafValues></_>
        <_>
          <internalNodes>
            0 -1 2 -3.6119794845581055e-01</internalNodes>
          <leafValues>
            -7.8049945831298828e-01 1.5913607180118561e-01</leafValues></_>
        <_>
          <internalNodes>
            0 -1 53 9.7783785313367844e-03</internalNodes>
          <leafValues>
            -1.8555779755115509e-01 6.7777240276336670e-01</leafValues></_></weakClassifiers></_>
    <!-- stage 1 -->
    <_>
      <maxWeakCount>11</maxWeakCount>
      <stageThreshold>-1.1507592201232910e+00</stageThreshold>
      <weakClassifiers>
        <_>
          <internalNodes>
            0 -1 64 -4.5533724129199982e-02</internalNodes>
          <leafValues>
            2.0222634077072144e-01 -6.8927252292633057e-01</leafValues></_>
        <_>
          <internalNodes>
            0 -1 8 -9.1661825776100159e-02</internalNodes>
          <leafValues>
            1.0497391223907471e-01 -8.7808150053024292e-01</leafValues></_>
        <_>
          <internalNodes>
            0 -1 40 -8.1596327945590019e-03</internalNodes>
          <leafValues>
            6.8676877021789551e-01 -2.1820773184299469e-01</leafValues></_>
        <_>
          <internalNodes>
            0 -1 69 -2.8320614248514175e-02</internalNodes>
          <leafValues>
            -8.8993817567825317e-01 2.2619718313217163e-01</leafValues></_>
        <_>
          <internalNodes>
            0 -1 72 2.7386494912207127e-03</internalNodes>
          <leafValues>
            -2.4779491126537323e-01 6.9732713699340820e-01</leafValues></_>
        <_>
          <internalNodes>
            0 -1 106 -5.9129472356289625e-04</internalNodes>
          <leafValues>
            5.1623767614364624e-01 -2.5297468900680542e-01</leafValues></_>
        <_>
          <internalNodes>
            0 -1 108 -9.5217302441596985e-04</internalNodes>
          <leafValues>
            6.0017997026443481e-01 -1.9155992567539215e-01</leafValues></_>
        <_>
          <internalNodes>
            0 -1 107 8.5867999587208033e-04</internalNodes>
          <leafValues>
            -1.7187871038913727e-01 6.4635276794433594e-01</leafValues></_>
        <_>
          <internalNodes>
            0 -1 122 -6.2450501136481762e-03</internalNodes>
          <leafValues>
            6.1382049322128296e-01 -1.9585664570331573e-01</leafValues></_>
        <_>
          <internalNodes>
            0 -1 0 -5.5331893265247345e-02</internalNodes>
          <leafValues>
            1.4927694201469421e-01 -9.4936299324035645e-01</leafValues></_>
        <_>
          <internalNodes>
            0 -1 76 -9.6421054331585765e-04</internalNodes>
          <leafValues>
            5.7845836877822876e-01 -2.2171555459499359e-01</leafValues></_></weakClassifiers></_>
    <!-- stage 2 -->
    <_>
      <maxWeakCount>8</maxWeakCount>
      <stageThreshold>-1.0505310297012329e+00</stageThreshold>
      <weakClassifiers>
        <_>
          <internalNodes>
            0 -1 49 1.9874960184097290e-02</internalNodes>
          <leafValues>
            -4.9277979135513306e-01 3.9669421315193176e-01</leafValues></_>
        <_>
          <internalNodes>
            0 -1 113 -4.9400255084037781e-02</internalNodes>
          <leafValues>
            -8.5297018289566040e-01 1.5361520648002625e-01</leafValues></_>
        <_>
          <internalNodes>
            0 -1 55 9.9640469998121262e-03</internalNodes>
          <leafValues>
            -3.4389442205429077e-01 3.9687150716781616e-01</leafValues></_>
        <_>
          <internalNodes>
            0 -1 114 -1.6030144179239869e-03</internalNodes>
          <leafValues>
            7.0801281929016113e-01 -1.3623712956905365e-01</leafValues></_>
        <_>
          <internalNodes>
            0 -1 115 1.2965148780494928e-03</internalNodes>
          <leafValues>
            -2.2375574707984924e-01 5.3012430667877197e-01</leafValues></_>
        <_>
          <internalNodes>
            0 -1 128 1.0471979621797800e-03</internalNodes>
          <leafValues>
            -1.7745280265808105e-01 6.8689858913421631e-01</leafValues></_>
        <_>
          <internalNodes>
            0 -1 127 -3.1958776526153088e-03</internalNodes>
          <leafValues>
            6.4502424001693726e-01 -1.2920920550823212e-01</leafValues></_>
        <_>
          <internalNodes>
            0 -1 90 -1.0407646186649799e-03</internalNodes>
          <leafValues>
            4.9228999018669128e-01 -2.0923109352588654e-01</leafValues></_></weakClassifiers></_>
    <!-- stage 3 -->
    <_>
      <maxWeakCount>13</maxWeakCount>
      <stageThreshold>-1.3980299234390259e+00</stageThreshold>
      <weakClassifiers>
        <_>
          <internalNodes>
            0 -1 7 -4.8321653157472610e-02</internalNodes>
          <leafValues>
            -3.2258063554763794e-02 -6.7032968997955322e-01</leafValues></_>
        <_>
          <internalNodes>
            0 -1 22 -5.3338494151830673e-02</internalNodes>
          <leafValues>
            9.9992446601390839e-02 -7.7415370941162109e-01</leafValues></_>
        <_>
          <internalNodes>
            0 -1 28 -7.1490304544568062e-03</internalNodes>
          <leafValues>
            6.7150026559829712e-01 -1.4063812792301178e-01</leafValues></_>
        <_>
          <internalNodes>
            0 -1 39 5.6110685691237450e-03</internalNodes>
          <leafValues>
            -1.5334902703762054e-01 5.7847034931182861e-01</leafValues></_>
        <_>
          <internalNodes>
            0 -1 66 1.5654200688004494e-03</internalNodes>
          <leafValues>
            -1.8559123575687408e-01 5.0424897670745850e-01</leafValues></_>
        <_>
          <internalNodes>
            0 -1 124 -2.9729974921792746e-03</internalNodes>
          <leafValues>
            6.7884784936904907e-01 -9.9725775420665741e-02</leafValues></_>
        <_>
          <internalNodes>
            0 -1 42 -6.2273256480693817e-03</internalNodes>
          <leafValues>
            5.9528398513793945e-01 -1.6379410028457642e-01</leafValues></_>
        <_>
          <internalNodes>
            0 -1 15 -6.2526054680347443e-03</internalNodes>
          <leafValues>
            4.1276755928993225e-01 -2.4562743306159973e-01</leafValues></_>
        <_>
          <internalNodes>
            0 -1 10 -1.6358828544616699e-01</internalNodes>
          <leafValues>
            -8.7628728151321411e-01 1.0138566792011261e-01</leafValues></_>
        <_>
          <internalNodes>
            0 -1 118 -2.5603650137782097e-03</internalNodes>
          <leafValues>
            5.8539998531341553e-01 -1.7785695195198059e-01</leafValues></_>
        <_>
          <internalNodes>
            0 -1 111 3.9755640318617225e-04</internalNodes>
          <leafValues>
            -1.9667288661003113e-01 4.5150628685951233e-01</leafValues></_>
        <_>
          <internalNodes>
            0 -1 91 -5.3702024742960930e-03</internalNodes>
          <leafValues>
            6.3108533620834351e-01 -1.5938453376293182e-01</leafValues></_>
        <_>
          <internalNodes>
            0 -1 94 -2.0714667625725269e-03</internalNodes>
          <leafValues>
            5.1535493135452271e-01 -1.3825763761997223e-01</leafValues></_></weakClassifiers></_>
    <!-- stage 4 -->
    <_>
      <maxWeakCount>16</maxWeakCount>
      <stageThreshold>-1.2163699865341187e+00</stageThreshold>
      <weakClassifiers>
        <_>
          <internalNodes>
            0 -1 86 -5.5540520697832108e-02</internalNodes>
          <leafValues>
            9.9476441740989685e-02 -5.0413221120834351e-01</leafValues></_>
        <_>
          <internalNodes>
            0 -1 44 4.5324945822358131e-03</internalNodes>
          <leafValues>
            -2.4129106104373932e-01 3.6095303297042847e-01</leafValues></_>
        <_>
          <internalNodes>
            0 -1 21 -2.3291295766830444e-01</internalNodes>
          <leafValues>
            9.9590711295604706e-02 -7.5788426399230957e-01</leafValues></_>
        <_>
          <internalNodes>
            0 -1 17 -1.4805805683135986e-01</internalNodes>
          <leafValues>
            -8.6196631193161011e-01 1.2614671885967255e-01</leafValues></_>
        <_>
          <internalNodes>
            0 -1 79 -3.1273472122848034e-03</internalNodes>
          <leafValues>
            4.2402991652488708e-01 -2.4469304084777832e-01</leafValues></_>
        <_>
          <internalNodes>
            0 -1 112 3.9895955706015229e-04</internalNodes>
          <leafValues>
            -2.0249204337596893e-01 4.5547199249267578e-01</leafValues></_>
        <_>
          <internalNodes>
            0 -1 126 -1.1614377144724131e-03</internalNodes>
          <leafValues>
            4.8295798897743225e-01 -1.5803690254688263e-01</leafValues></_>
        <_>
          <internalNodes>
            0 -1 41 1.2282976880669594e-02</internalNodes>
          <leafValues>
            -1.2709221243858337e-01 5.9624671936035156e-01</leafValues></_>
        <_>
          <internalNodes>
            0 -1 33 -4.8628100194036961e-03</internalNodes>
          <leafValues>
            4.8855885863304138e-01 -1.9955053925514221e-01</leafValues></_>
        <_>
          <internalNodes>
            0 -1 74 5.9195971116423607e-03</internalNodes>
          <leafValues>
            -1.2879049777984619e-01 5.3520411252975464e-01</leafValues></_>
        <_>
          <internalNodes>
            0 -1 16 -6.2022879719734192e-03</internalNodes>
          <leafValues>
            2.3690800368785858e-01 -3.1795910000801086e-01</leafValues></_>
        <_>
          <internalNodes>
            0 -1 13 -4.8425674438476563e-02</internalNodes>
          <leafValues>
            -5.0860798358917236e-01 1.5692542493343353e-01</leafValues></_>
        <_>
          <internalNodes>
            0 -1 1 9.7964122891426086e-02</internalNodes>
          <leafValues>
            9.7379252314567566e-02 -6.4955598115921021e-01</leafValues></_>
        <_>
          <internalNodes>
            0 -1 5 -3.7003123760223389e-01</internalNodes>
          <leafValues>
            -8.8494884967803955e-01 6.2166702002286911e-02</leafValues></_>
        <_>
          <internalNodes>
            0 -1 136 2.1476941183209419e-03</internalNodes>
          <leafValues>
            -2.1350049972534180e-01 3.3855575323104858e-01</leafValues></_>
        <_>
          <internalNodes>
            0 -1 138 -8.7930679321289063e-02</internalNodes>
          <leafValues>
            -5.9631282091140747e-01 1.1085133254528046e-01</leafValues></_></weakClassifiers></_>
    <!-- stage 5 -->
    <_>
      <maxWeakCount>18</maxWeakCount>
      <stageThreshold>-1.1988637447357178e+00</stageThreshold>
      <weakClassifiers>
        <_>
          <internalNodes>
            0 -1 65 -5.7533454149961472e-02</internalNodes>
          <leafValues>
            1.2311015278100967e-01 -5.7158964872360229e-01</leafValues></_>
        <_>
          <internalNodes>
            0 -1 101 -5.0840582698583603e-03</internalNodes>
          <leafValues>
            5.6398248672485352e-01 -1.6905097663402557e-01</leafValues></_>
        <_>
          <internalNodes>
            0 -1 70 7.7381948940455914e-03</internalNodes>
          <leafValues>
            -1.3057214021682739e-01 5.8232194185256958e-01</leafValues></_>
        <_>
          <internalNodes>
            0 -1 18 -2.5466454029083252e-01</internalNodes>
          <leafValues>
            1.5174113214015961e-01 -5.3239864110946655e-01</leafValues></_>
        <_>
          <internalNodes>
            0 -1 47 -5.0299191474914551e-01</internalNodes>
          <leafValues>
            -6.1437213420867920e-01 1.6572158038616180e-01</leafValues></_>
        <_>
          <internalNodes>
            0 -1 50 -6.2075280584394932e-03</internalNodes>
          <leafValues>
            6.4242202043533325e-01 -1.2956228852272034e-01</leafValues></_>
        <_>
          <internalNodes>
            0 -1 20 -3.0045479536056519e-01</internalNodes>
          <leafValues>
            -6.9330590963363647e-01 9.2818565666675568e-02</leafValues></_>
        <_>
          <internalNodes>
            0 -1 78 -8.8899518596008420e-04</internalNodes>
          <leafValues>
            3.7601187825202942e-01 -1.6771973669528961e-01</leafValues></_>
        <_>
          <internalNodes>
            0 -1 27 -3.7922004703432322e-03</internalNodes>
          <leafValues>
            4.6516400575637817e-01 -1.3028222322463989e-01</leafValues></_>
        <_>
          <internalNodes>
            0 -1 120 2.7952510863542557e-03</internalNodes>
          <leafValues>
            -1.3212685286998749e-01 5.4547512531280518e-01</leafValues></_>
        <_>
          <internalNodes>
            0 -1 105 -7.0879189297556877e-04</internalNodes>
          <leafValues>
            4.3938812613487244e-01 -1.5651424229145050e-01</leafValues></_>
        <_>
          <internalNodes>
            0 -1 104 -4.6357875689864159e-03</internalNodes>
          <leafValues>
            4.2438018321990967e-01 -1.8562233448028564e-01</leafValues></_>
        <_>
          <internalNodes>
            0 -1 3 -1.3275344856083393e-02</internalNodes>
          <leafValues>
            2.4758107960224152e-01 -3.1216832995414734e-01</leafValues></_>
        <_>
          <internalNodes>
            0 -1 116 5.1536308601498604e-03</internalNodes>
          <leafValues>
            -1.2201315909624100e-01 5.4168295860290527e-01</leafValues></_>
        <_>
          <internalNodes>
            0 -1 96 -2.4678953923285007e-03</internalNodes>
          <leafValues>
            4.3312337994575500e-01 -1.4340022206306458e-01</leafValues></_>
        <_>
          <internalNodes>
            0 -1 52 -1.1423951946198940e-03</internalNodes>
          <leafValues>
            4.9094268679618835e-01 -1.2627449631690979e-01</leafValues></_>
        <_>
          <internalNodes>
            0 -1 29 3.7623330950737000e-02</internalNodes>
          <leafValues>
            -2.1238879859447479e-01 3.1122896075248718e-01</leafValues></_>
        <_>
          <internalNodes>
            0 -1 14 7.7158942818641663e-02</internalNodes>
          <leafValues>
            1.3953599333763123e-01 -5.9065741300582886e-01</leafValues></_></weakClassifiers></_>
    <!-- stage 6 -->
    <_>
      <maxWeakCount>22</maxWeakCount>
      <stageThreshold>-1.1325525045394897e+00</stageThreshold>
      <weakClassifiers>
        <_>
          <internalNodes>
            0 -1 84 -5.2535519003868103e-02</internalNodes>
          <leafValues>
            1.4473684132099152e-01 -4.7227534651756287e-01</leafValues></_>
        <_>
          <internalNodes>
            0 -1 31 -2.0718321204185486e-02</internalNodes>
          <leafValues>
            1.6302509605884552e-01 -4.8542821407318115e-01</leafValues></_>
        <_>
          <internalNodes>
            0 -1 12 -1.2002699077129364e-02</internalNodes>
          <leafValues>
            2.6328194141387939e-01 -2.3598194122314453e-01</leafValues></_>
        <_>
          <internalNodes>
            0 -1 125 -1.3450211845338345e-03</internalNodes>
          <leafValues>
            4.2276659607887268e-01 -1.2876953184604645e-01</leafValues></_>
        <_>
          <internalNodes>
            0 -1 4 -1.0634583979845047e-01</internalNodes>
          <leafValues>
            -6.5112298727035522e-01 1.4705877006053925e-01</leafValues></_>
        <_>
          <internalNodes>
            0 -1 121 3.8937124190852046e-04</internalNodes>
          <leafValues>
            -2.1683070063591003e-01 2.9842615127563477e-01</leafValues></_>
        <_>
          <internalNodes>
            0 -1 83 -4.5710448175668716e-03</internalNodes>
          <leafValues>
            6.7601519823074341e-01 -5.5017616599798203e-02</leafValues></_>
        <_>
          <internalNodes>
            0 -1 51 4.4023647904396057e-02</internalNodes>
          <leafValues>
            -1.0908266901969910e-01 5.3192025423049927e-01</leafValues></_>
        <_>
          <internalNodes>
            0 -1 87 -1.0779805015772581e-03</internalNodes>
          <leafValues>
            4.6443086862564087e-01 -1.2785555422306061e-01</leafValues></_>
        <_>
          <internalNodes>
            0 -1 92 -2.1220087073743343e-03</internalNodes>
          <leafValues>
            4.6490442752838135e-01 -1.2199508398771286e-01</leafValues></_>
        <_>
          <internalNodes>
            0 -1 102 1.5114375855773687e-03</internalNodes>
          <leafValues>
            -1.2210211902856827e-01 4.4424957036972046e-01</leafValues></_>
        <_>
          <internalNodes>
            0 -1 60 -3.6225591320544481e-03</internalNodes>
          <leafValues>
            4.5622256398200989e-01 -2.0118083059787750e-01</leafValues></_>
        <_>
          <internalNodes>
            0 -1 129 7.5419229688122869e-04</internalNodes>
          <leafValues>
            -1.2128669023513794e-01 4.5457300543785095e-01</leafValues></_>
        <_>
          <internalNodes>
            0 -1 117 -1.2888032011687756e-02</internalNodes>
          <leafValues>
            2.9927584528923035e-01 -2.2294025123119354e-01</leafValues></_>
        <_>
          <internalNodes>
            0 -1 135 -3.3809347078204155e-03</internalNodes>
          <leafValues>
            4.3510031700134277e-01 -1.3822966814041138e-01</leafValues></_>
        <_>
          <internalNodes>
            0 -1 56 1.0797069407999516e-03</internalNodes>
          <leafValues>
            -1.1650697141885757e-01 3.9946919679641724e-01</leafValues></_>
        <_>
          <internalNodes>
            0 -1 100 -1.0753158479928970e-02</internalNodes>
          <leafValues>
            -9.1704249382019043e-01 5.8670721948146820e-02</leafValues></_>
        <_>
          <internalNodes>
            0 -1 99 2.6801088824868202e-03</internalNodes>
          <leafValues>
            -2.0716454088687897e-01 2.8668525815010071e-01</leafValues></_>
        <_>
          <internalNodes>
            0 -1 97 6.8991992156952620e-04</internalNodes>
          <leafValues>
            -1.4021079242229462e-01 4.3529084324836731e-01</leafValues></_>
        <_>
          <internalNodes>
            0 -1 137 -7.1099572815001011e-03</internalNodes>
          <leafValues>
            7.9773575067520142e-02 -8.8004487752914429e-01</leafValues></_>
        <_>
          <internalNodes>
            0 -1 93 -2.9631841927766800e-02</internalNodes>
          <leafValues>
            -2.2484084963798523e-01 2.8915032744407654e-01</leafValues></_>
        <_>
          <internalNodes>
            0 -1 98 -5.4417448118329048e-03</internalNodes>
          <leafValues>
            5.4233819246292114e-01 -1.2789931893348694e-01</leafValues></_></weakClassifiers></_>
    <!-- stage 7 -->
    <_>
      <maxWeakCount>22</maxWeakCount>
      <stageThreshold>-1.2354675531387329e+00</stageThreshold>
      <weakClassifiers>
        <_>
          <internalNodes>
            0 -1 130 5.2272407338023186e-03</internalNodes>
          <leafValues>
            -5.5671447515487671e-01 -3.9451114833354950e-02</leafValues></_>
        <_>
          <internalNodes>
            0 -1 30 1.5492945909500122e-02</internalNodes>
          <leafValues>
            -1.3446509838104248e-01 6.1676424741744995e-01</leafValues></_>
        <_>
          <internalNodes>
            0 -1 45 6.2729083001613617e-03</internalNodes>
          <leafValues>
            -3.5659104585647583e-01 1.7411388456821442e-01</leafValues></_>
        <_>
          <internalNodes>
            0 -1 95 4.0032761171460152e-03</internalNodes>
          <leafValues>
            -1.0960535705089569e-01 5.3828775882720947e-01</leafValues></_>
        <_>
          <internalNodes>
            0 -1 23 1.9084956496953964e-02</internalNodes>
          <leafValues>
            -8.1224277615547180e-02 6.6007685661315918e-01</leafValues></_>
        <_>
          <internalNodes>
            0 -1 71 3.6771129816770554e-03</internalNodes>
          <leafValues>
            -1.3960389792919159e-01 4.2448294162750244e-01</leafValues></_>
        <_>
          <internalNodes>
            0 -1 32 -6.2645114958286285e-02</internalNodes>
          <leafValues>
            3.6505138874053955e-01 -1.7960543930530548e-01</leafValues></_>
        <_>
          <internalNodes>
            0 -1 19 1.8374301493167877e-02</internalNodes>
          <leafValues>
            7.6137393712997437e-02 -7.3314589262008667e-01</leafValues></_>
        <_>
          <internalNodes>
            0 -1 75 7.3677790351212025e-04</internalNodes>
          <leafValues>
            -1.6189870238304138e-01 3.6644166707992554e-01</leafValues></_>
        <_>
          <internalNodes>
            0 -1 88 -4.7799412277527153e-04</internalNodes>
          <leafValues>
            2.5104984641075134e-01 -2.1659770607948303e-01</leafValues></_>
        <_>
          <internalNodes>
            0 -1 61 -2.0965734438505024e-04</internalNodes>
          <leafValues>
            -3.6572694778442383e-01 1.5561707317829132e-01</leafValues></_>
        <_>
          <internalNodes>
            0 -1 82 9.8188407719135284e-03</internalNodes>
          <leafValues>
            -9.9776640534400940e-02 5.6465417146682739e-01</leafValues></_>
        <_>
          <internalNodes>
            0 -1 36 -8.6256675422191620e-03</internalNodes>
          <leafValues>
            4.2840847373008728e-01 -1.3081535696983337e-01</leafValues></_>
        <_>
          <internalNodes>
            0 -1 81 3.6696034949272871e-03</internalNodes>
          <leafValues>
            -1.2268686294555664e-01 4.2739894986152649e-01</leafValues></_>
        <_>
          <internalNodes>
            0 -1 119 3.0907259788364172e-03</internalNodes>
          <leafValues>
            -8.1535629928112030e-02 6.3539761304855347e-01</leafValues></_>
        <_>
          <internalNodes>
            0 -1 58 2.0214603282511234e-03</internalNodes>
          <leafValues>
            8.1391833722591400e-02 -7.4266171455383301e-01</leafValues></_>
        <_>
          <internalNodes>
            0 -1 67 -5.1342025399208069e-03</internalNodes>
          <leafValues>
            3.6047559976577759e-01 -1.5898938477039337e-01</leafValues></_>
        <_>
          <internalNodes>
            0 -1 9 -7.1769685018807650e-04</internalNodes>
          <leafValues>
            -2.7314469218254089e-01 2.1366988122463226e-01</leafValues></_>
        <_>
          <internalNodes>
            0 -1 11 1.2407559901475906e-02</internalNodes>
          <leafValues>
            -1.2938763201236725e-01 4.4574245810508728e-01</leafValues></_>
        <_>
          <internalNodes>
            0 -1 60 -9.3216821551322937e-03</internalNodes>
          <leafValues>
            7.0388156175613403e-01 -1.0132972896099091e-01</leafValues></_>
        <_>
          <internalNodes>
            0 -1 6 -4.2842198163270950e-03</internalNodes>
          <leafValues>
            -3.8626304268836975e-01 1.6363176703453064e-01</leafValues></_>
        <_>
          <internalNodes>
            0 -1 35 4.3586812913417816e-02</internalNodes>
          <leafValues>
            -8.9298002421855927e-02 6.7884993553161621e-01</leafValues></_></weakClassifiers></_>
    <!-- stage 8 -->
    <_>
      <maxWeakCount>27</maxWeakCount>
      <stageThreshold>-1.2131056785583496e+00</stageThreshold>
      <weakClassifiers>
        <_>
          <internalNodes>
            0 -1 37 -7.4546396732330322e-02</internalNodes>
          <leafValues>
            -4.4722720980644226e-02 -5.3729456663131714e-01</leafValues></_>
        <_>
          <internalNodes>
            0 -1 38 2.4236245080828667e-03</internalNodes>
          <leafValues>
            -1.6192729771137238e-01 3.7860688567161560e-01</leafValues></_>
        <_>
          <internalNodes>
            0 -1 59 -3.4256242215633392e-03</internalNodes>
          <leafValues>
            4.9226820468902588e-01 -1.2744002044200897e-01</leafValues></_>
        <_>
          <internalNodes>
            0 -1 62 -3.9350753650069237e-03</internalNodes>
          <leafValues>
            5.6515139341354370e-01 -8.7800644338130951e-02</leafValues></_>
        <_>
          <internalNodes>
            0 -1 57 -1.7249781638383865e-02</internalNodes>
          <leafValues>
            -5.3512346744537354e-01 1.1470917612314224e-01</leafValues></_>
        <_>
          <internalNodes>
            0 -1 34 -5.3283078595995903e-03</internalNodes>
          <leafValues>
            4.7529447078704834e-01 -1.4560179412364960e-01</leafValues></_>
        <_>
          <internalNodes>
            0 -1 110 1.2415433302521706e-03</internalNodes>
          <leafValues>
            -1.2768925726413727e-01 4.3365290760993958e-01</leafValues></_>
        <_>
          <internalNodes>
            0 -1 109 -4.6679726801812649e-03</internalNodes>
          <leafValues>
            5.1500052213668823e-01 -1.1513252556324005e-01</leafValues></_>
        <_>
          <internalNodes>
            0 -1 26 -2.7063437737524509e-03</internalNodes>
          <leafValues>
            2.0660829544067383e-01 -2.3211157321929932e-01</leafValues></_>
        <_>
          <internalNodes>
            0 -1 25 -3.5874098539352417e-02</internalNodes>
          <leafValues>
            6.9813287258148193e-01 -5.4289542138576508e-02</leafValues></_>
        <_>
          <internalNodes>
            0 -1 68 -7.9807005822658539e-03</internalNodes>
          <leafValues>
            -7.5722455978393555e-01 7.1982242166996002e-02</leafValues></_>
        <_>
          <internalNodes>
            0 -1 77 2.7385546127334237e-04</internalNodes>
          <leafValues>
            -1.9280578196048737e-01 2.6796525716781616e-01</leafValues></_>
        <_>
          <internalNodes>
            0 -1 85 1.1453416664153337e-03</internalNodes>
          <leafValues>
            -1.3714067637920380e-01 4.1771426796913147e-01</leafValues></_>
        <_>
          <internalNodes>
            0 -1 38 -1.8061990849673748e-03</internalNodes>
          <leafValues>
            3.6231037974357605e-01 -1.4925171434879303e-01</leafValues></_>
        <_>
          <internalNodes>
            0 -1 24 -1.2760618701577187e-02</internalNodes>
          <leafValues>
            4.3057987093925476e-01 -1.1223691701889038e-01</leafValues></_>
        <_>
          <internalNodes>
            0 -1 48 -1.5784098650328815e-04</internalNodes>
          <leafValues>
            2.4030953645706177e-01 -1.9481003284454346e-01</leafValues></_>
        <_>
          <internalNodes>
            0 -1 89 1.1135560926049948e-03</internalNodes>
          <leafValues>
            -1.4123597741127014e-01 3.3591669797897339e-01</leafValues></_>
        <_>
          <internalNodes>
            0 -1 54 -1.0072699515148997e-03</internalNodes>
          <leafValues>
            4.3611735105514526e-01 -1.1113812029361725e-01</leafValues></_>
        <_>
          <internalNodes>
            0 -1 54 7.9365167766809464e-04</internalNodes>
          <leafValues>
            -1.2652289867401123e-01 3.9014330506324768e-01</leafValues></_>
        <_>
          <internalNodes>
            0 -1 134 3.6845106631517410e-02</internalNodes>
          <leafValues>
            1.3097296655178070e-01 -3.9170140027999878e-01</leafValues></_>
        <_>
          <internalNodes>
            0 -1 43 5.0077456980943680e-03</internalNodes>
          <leafValues>
            -1.8206742405891418e-01 3.3927813172340393e-01</leafValues></_>
        <_>
          <internalNodes>
            0 -1 31 -3.6905832588672638e-02</internalNodes>
          <leafValues>
            -7.7531480789184570e-01 8.0031275749206543e-02</leafValues></_>
        <_>
          <internalNodes>
            0 -1 133 8.5925096645951271e-03</internalNodes>
          <leafValues>
            -1.3344280421733856e-01 4.3203127384185791e-01</leafValues></_>
        <_>
          <internalNodes>
            0 -1 123 -7.1163510438054800e-04</internalNodes>
          <leafValues>
            4.4696867465972900e-01 -1.1721330881118774e-01</leafValues></_>
        <_>
          <internalNodes>
            0 -1 132 -2.2061807103455067e-03</internalNodes>
          <leafValues>
            4.1341418027877808e-01 -1.2857945263385773e-01</leafValues></_>
        <_>
          <internalNodes>
            0 -1 80 -1.7757846508175135e-03</internalNodes>
          <leafValues>
            3.7820261716842651e-01 -1.3145321607589722e-01</leafValues></_>
        <_>
          <internalNodes>
            0 -1 63 3.7713223136961460e-03</internalNodes>
          <leafValues>
            -1.0590839385986328e-01 4.8642247915267944e-01</leafValues></_></weakClassifiers></_></stages>
  <features>
    <_>
      <rects>
        <_>
          0 0 3 21 -1.</_>
        <_>
          0 7 3 7 2.</_></rects>
      <tilted>0</tilted></_>
    <_>
      <rects>
        <_>
          0 0 6 22 -1.</_>
        <_>
          0 11 6 11 2.</_></rects>
      <tilted>0</tilted></_>
    <_>
      <rects>
        <_>
          0 0 24 5 -1.</_>
        <_>
          8 0 8 5 2.</_></rects>
      <tilted>0</tilted></_>
    <_>
      <rects>
        <_>
          0 4 10 18 -1.</_>
        <_>
          0 4 5 9 2.</_>
        <_>
          5 13 5 9 2.</_></rects>
      <tilted>0</tilted></_>
    <_>
      <rects>
        <_>
          0 4 18 2 -1.</_>
        <_>
          6 4 6 2 2.</_></rects>
      <tilted>0</tilted></_>
    <_>
      <rects>
        <_>
          0 6 20 18 -1.</_>
        <_>
          0 15 20 9 2.</_></rects>
      <tilted>0</tilted></_>
    <_>
      <rects>
        <_>
          0 7 1 16 -1.</_>
        <_>
          0 15 1 8 2.</_></rects>
      <tilted>0</tilted></_>
    <_>
      <rects>
        <_>
          0 8 16 16 -1.</_>
        <_>
          0 8 8 8 2.</_>
        <_>
          8 16 8 8 2.</_></rects>
      <tilted>0</tilted></_>
    <_>
      <rects>
        <_>
          0 15 24 3 -1.</_>
        <_>
          0 16 24 1 2.</_></rects>
      <tilted>0</tilted></_>
    <_>
      <rects>
        <_>
          0 20 8 4 -1.</_>
        <_>
          0 22 8 2 2.</_></rects>
      <tilted>0</tilted></_>
    <_>
      <rects>
        <_>
          1 3 18 3 -1.</_>
        <_>
          7 3 6 3 2.</_></rects>
      <tilted>0</tilted></_>
    <_>
      <rects>
        <_>
          1 3 20 2 -1.</_>
        <_>
          1 4 20 1 2.</_></rects>
      <tilted>0</tilted></_>
    <_>
      <rects>
        <_>
          1 19 12 3 -1.</_>
        <_>
          7 19 6 3 2.</_></rects>
      <tilted>0</tilted></_>
    <_>
      <rects>
        <_>
          2 0 12 12 -1.</_>
        <_>
          2 6 12 6 2.</_></rects>
      <tilted>0</tilted></_>
    <_>
      <rects>
        <_>
          2 1 20 9 -1.</_>
        <_>
          12 1 10 9 2.</_></rects>
      <tilted>0</tilted></_>
    <_>
      <rects>
        <_>
          2 12 8 4 -1.</_>
        <_>
          2 12 4 2 2.</_>
        <_>
          6 14 4 2 2.</_></rects>
      <tilted>0</tilted></_>
    <_>
      <rects>
        <_>
          2 17 12 4 -1.</_>
        <_>
          8 17 6 4 2.</_></rects>
      <tilted>0</tilted></_>
    <_>
      <rects>
        <_>
          2 18 8 6 -1.</_>
        <_>
          2 20 8 2 2.</_></rects>
      <tilted>0</tilted></_>
    <_>
      <rects>
        <_>
          3 0 21 8 -1.</_>
        <_>
          10 0 7 8 2.</_></rects>
      <tilted>0</tilted></_>
    <_>
      <rects>
        <_>
          3 3 3 8 -1.</_>
        <_>
          3 7 3 4 2.</_></rects>
      <tilted>0</tilted></_>
    <_>
      <rects>
        <_>
          4 0 20 24 -1.</_>
        <_>
          14 0 10 24 2.</_></rects>
      <tilted>0</tilted></_>
    <_>
      <rects>
        <_>
          4 1 19 9 -1.</_>
        <_>
          4 4 19 3 2.</_></rects>
      <tilted>0</tilted></_>
    <_>
      <rects>
        <_>
          4 2 3 13 -1.</_>
        <_>
          5 2 1 13 2.</_></rects>
      <tilted>0</tilted></_>
    <_>
      <rects>
        <_>
          4 2 15 2 -1.</_>
        <_>
          4 3 15 1 2.</_></rects>
      <tilted>0</tilted></_>
    <_>
      <rects>
        <_>
          4 13 15 2 -1.</_>
        <_>
          4 14 15 1 2.</_></rects>
      <tilted>0</tilted></_>
    <_>
      <rects>
        <_>
          4 16 16 4 -1.</_>
        <_>
          4 16 8 2 2.</_>
        <_>
          12 18 8 2 2.</_></rects>
      <tilted>0</tilted></_>
    <_>
      <rects>
        <_>
          4 19 6 5 -1.</_>
        <_>
          7 19 3 5 2.</_></rects>
      <tilted>0</tilted></_>
    <_>
      <rects>
        <_>
          5 2 8 2 -1.</_>
        <_>
          5 3 8 1 2.</_></rects>
      <tilted>0</tilted></_>
    <_>
      <rects>
        <_>
          5 3 6 2 -1.</_>
        <_>
          5 4 6 1 2.</_></rects>
      <tilted>0</tilted></_>
    <_>
      <rects>
        <_>
          5 4 10 11 -1.</_>
        <_>
          10 4 5 11 2.</_></rects>
      <tilted>0</tilted></_>
    <_>
      <rects>
        <_>
          5 4 15 2 -1.</_>
        <_>
          5 5 15 1 2.</_></rects>
      <tilted>0</tilted></_>
    <_>
      <rects>
        <_>
          6 2 6 2 -1.</_>
        <_>
          8 2 2 2 2.</_></rects>
      <tilted>0</tilted></_>
    <_>
      <rects>
        <_>
          6 2 9 3 -1.</_>
        <_>
          6 3 9 1 2.</_></rects>
      <tilted>0</tilted></_>
    <_>
      <rects>
        <_>
          6 3 7 2 -1.</_>
        <_>
          6 4 7 1 2.</_></rects>
      <tilted>0</tilted></_>
    <_>
      <rects>
        <_>
          6 3 9 2 -1.</_>
        <_>
          6 4 9 1 2.</_></rects>
      <tilted>0</tilted></_>
    <_>
      <rects>
        <_>
          6 11 10 8 -1.</_>
        <_>
          6 11 5 4 2.</_>
        <_>
          11 15 5 4 2.</_></rects>
      <tilted>0</tilted></_>
    <_>
      <rects>
        <_>
          6 11 11 2 -1.</_>
        <_>
          6 12 11 1 2.</_></rects>
      <tilted>0</tilted></_>
    <_>
      <rects>
        <_>
          6 11 15 8 -1.</_>
        <_>
          6 15 15 4 2.</_></rects>
      <tilted>0</tilted></_>
    <_>
      <rects>
        <_>
          7 2 3 2 -1.</_>
        <_>
          7 3 3 1 2.</_></rects>
      <tilted>0</tilted></_>
    <_>
      <rects>
        <_>
          7 3 7 2 -1.</_>
        <_>
          7 4 7 1 2.</_></rects>
      <tilted>0</tilted></_>
    <_>
      <rects>
        <_>
          7 3 11 2 -1.</_>
        <_>
          7 4 11 1 2.</_></rects>
      <tilted>0</tilted></_>
    <_>
      <rects>
        <_>
          7 3 17 2 -1.</_>
        <_>
          7 4 17 1 2.</_></rects>
      <tilted>0</tilted></_>
    <_>
      <rects>
        <_>
          7 10 9 2 -1.</_>
        <_>
          7 11 9 1 2.</_></rects>
      <tilted>0</tilted></_>
    <_>
      <rects>
        <_>
          7 20 3 4 -1.</_>
        <_>
          7 22 3 2 2.</_></rects>
      <tilted>0</tilted></_>
    <_>
      <rects>
        <_>
          7 20 4 4 -1.</_>
        <_>
          7 22 4 2 2.</_></rects>
      <tilted>0</tilted></_>
    <_>
      <rects>
        <_>
          8 0 9 14 -1.</_>
        <_>
          8 7 9 7 2.</_></rects>
      <tilted>0</tilted></_>
    <_>
      <rects>
        <_>
          8 1 16 21 -1.</_>
        <_>
          8 8 16 7 2.</_></rects>
      <tilted>0</tilted></_>
    <_>
      <rects>
        <_>
          8 2 10 21 -1.</_>
        <_>
          8 9 10 7 2.</_></rects>
      <tilted>0</tilted></_>
    <_>
      <rects>
        <_>
          8 3 1 6 -1.</_>
        <_>
          8 6 1 3 2.</_></rects>
      <tilted>0</tilted></_>
    <_>
      <rects>
        <_>
          8 8 4 11 -1.</_>
        <_>
          10 8 2 11 2.</_></rects>
      <tilted>0</tilted></_>
    <_>
      <rects>
        <_>
          8 8 8 2 -1.</_>
        <_>
          8 8 4 1 2.</_>
        <_>
          12 9 4 1 2.</_></rects>
      <tilted>0</tilted></_>
    <_>
      <rects>
        <_>
          8 10 10 4 -1.</_>
        <_>
          13 10 5 4 2.</_></rects>
      <tilted>0</tilted></_>
    <_>
      <rects>
        <_>
          8 13 2 1 -1.</_>
        <_>
          9 13 1 1 2.</_></rects>
      <tilted>0</tilted></_>
    <_>
      <rects>
        <_>
          8 13 8 4 -1.</_>
        <_>
          8 13 4 2 2.</_>
        <_>
          12 15 4 2 2.</_></rects>
      <tilted>0</tilted></_>
    <_>
      <rects>
        <_>
          8 17 2 2 -1.</_>
        <_>
          8 17 1 1 2.</_>
        <_>
          9 18 1 1 2.</_></rects>
      <tilted>0</tilted></_>
    <_>
      <rects>
        <_>
          8 20 13 4 -1.</_>
        <_>
          8 22 13 2 2.</_></rects>
      <tilted>0</tilted></_>
    <_>
      <rects>
        <_>
          8 21 4 2 -1.</_>
        <_>
          8 21 2 1 2.</_>
        <_>
          10 22 2 1 2.</_></rects>
      <tilted>0</tilted></_>
    <_>
      <rects>
        <_>
          9 0 3 10 -1.</_>
        <_>
          9 5 3 5 2.</_></rects>
      <tilted>0</tilted></_>
    <_>
      <rects>
        <_>
          9 2 2 2 -1.</_>
        <_>
          10 2 1 2 2.</_></rects>
      <tilted>0</tilted></_>
    <_>
      <rects>
        <_>
          9 2 4 2 -1.</_>
        <_>
          9 3 4 1 2.</_></rects>
      <tilted>0</tilted></_>
    <_>
      <rects>
        <_>
          9 3 6 2 -1.</_>
        <_>
          9 4 6 1 2.</_></rects>
      <tilted>0</tilted></_>
    <_>
      <rects>
        <_>
          9 4 2 1 -1.</_>
        <_>
          10 4 1 1 2.</_></rects>
      <tilted>0</tilted></_>
    <_>
      <rects>
        <_>
          9 4 3 2 -1.</_>
        <_>
          9 5 3 1 2.</_></rects>
      <tilted>0</tilted></_>
    <_>
      <rects>
        <_>
          9 9 2 4 -1.</_>
        <_>
          9 9 1 2 2.</_>
        <_>
          10 11 1 2 2.</_></rects>
      <tilted>0</tilted></_>
    <_>
      <rects>
        <_>
          9 10 8 10 -1.</_>
        <_>
          9 15 8 5 2.</_></rects>
      <tilted>0</tilted></_>
    <_>
      <rects>
        <_>
          9 11 9 8 -1.</_>
        <_>
          9 15 9 4 2.</_></rects>
      <tilted>0</tilted></_>
    <_>
      <rects>
        <_>
          9 13 2 2 -1.</_>
        <_>
          10 13 1 2 2.</_></rects>
      <tilted>0</tilted></_>
    <_>
      <rects>
        <_>
          9 15 6 2 -1.</_>
        <_>
          9 16 6 1 2.</_></rects>
      <tilted>0</tilted></_>
    <_>
      <rects>
        <_>
          10 1 1 6 -1.</_>
        <_>
          10 4 1 3 2.</_></rects>
      <tilted>0</tilted></_>
    <_>
      <rects>
        <_>
          10 1 3 3 -1.</_>
        <_>
          11 1 1 3 2.</_></rects>
      <tilted>0</tilted></_>
    <_>
      <rects>
        <_>
          10 2 9 2 -1.</_>
        <_>
          10 3 9 1 2.</_></rects>
      <tilted>0</tilted></_>
    <_>
      <rects>
        <_>
          10 8 2 6 -1.</_>
        <_>
          10 8 1 3 2.</_>
        <_>
          11 11 1 3 2.</_></rects>
      <tilted>0</tilted></_>
    <_>
      <rects>
        <_>
          10 10 2 4 -1.</_>
        <_>
          10 10 1 2 2.</_>
        <_>
          11 12 1 2 2.</_></rects>
      <tilted>0</tilted></_>
    <_>
      <rects>
        <_>
          10 10 7 10 -1.</_>
        <_>
          10 15 7 5 2.</_></rects>
      <tilted>0</tilted></_>
    <_>
      <rects>
        <_>
          10 11 2 7 -1.</_>
        <_>
          11 11 1 7 2.</_></rects>
      <tilted>0</tilted></_>
    <_>
      <rects>
        <_>
          10 12 2 2 -1.</_>
        <_>
          10 12 1 1 2.</_>
        <_>
          11 13 1 1 2.</_></rects>
      <tilted>0</tilted></_>
    <_>
      <rects>
        <_>
          10 13 2 1 -1.</_>
        <_>
          11 13 1 1 2.</_></rects>
      <tilted>0</tilted></_>
    <_>
      <rects>
        <_>
          10 16 1 2 -1.</_>
        <_>
          10 17 1 1 2.</_></rects>
      <tilted>0</tilted></_>
    <_>
      <rects>
        <_>
          10 17 2 2 -1.</_>
        <_>
          11 17 1 2 2.</_></rects>
      <tilted>0</tilted></_>
    <_>
      <rects>
        <_>
          10 18 4 3 -1.</_>
        <_>
          12 18 2 3 2.</_></rects>
      <tilted>0</tilted></_>
    <_>
      <rects>
        <_>
          11 5 2 6 -1.</_>
        <_>
          11 5 1 3 2.</_>
        <_>
          12 8 1 3 2.</_></rects>
      <tilted>0</tilted></_>
    <_>
      <rects>
        <_>
          11 8 2 6 -1.</_>
        <_>
          11 8 1 3 2.</_>
        <_>
          12 11 1 3 2.</_></rects>
      <tilted>0</tilted></_>
    <_>
      <rects>
        <_>
          11 8 1 8 -1.</_>
        <_>
          11 12 1 4 2.</_></rects>
      <tilted>0</tilted></_>
    <_>
      <rects>
        <_>
          11 9 4 2 -1.</_>
        <_>
          11 9 2 1 2.</_>
        <_>
          13 10 2 1 2.</_></rects>
      <tilted>0</tilted></_>
    <_>
      <rects>
        <_>
          11 9 8 11 -1.</_>
        <_>
          15 9 4 11 2.</_></rects>
      <tilted>0</tilted></_>
    <_>
      <rects>
        <_>
          11 10 2 1 -1.</_>
        <_>
          12 10 1 1 2.</_></rects>
      <tilted>0</tilted></_>
    <_>
      <rects>
        <_>
          11 11 6 8 -1.</_>
        <_>
          11 15 6 4 2.</_></rects>
      <tilted>0</tilted></_>
    <_>
      <rects>
        <_>
          11 12 2 1 -1.</_>
        <_>
          12 12 1 1 2.</_></rects>
      <tilted>0</tilted></_>
    <_>
      <rects>
        <_>
          11 12 1 2 -1.</_>
        <_>
          11 13 1 1 2.</_></rects>
      <tilted>0</tilted></_>
    <_>
      <rects>
        <_>
          11 14 2 2 -1.</_>
        <_>
          11 15 2 1 2.</_></rects>
      <tilted>0</tilted></_>
    <_>
      <rects>
        <_>
          11 14 4 2 -1.</_>
        <_>
          11 14 2 1 2.</_>
        <_>
          13 15 2 1 2.</_></rects>
      <tilted>0</tilted></_>
    <_>
      <rects>
        <_>
          11 16 5 2 -1.</_>
        <_>
          11 17 5 1 2.</_></rects>
      <tilted>0</tilted></_>
    <_>
      <rects>
        <_>
          11 19 4 1 -1.</_>
        <_>
          13 19 2 1 2.</_></rects>
      <tilted>0</tilted></_>
    <_>
      <rects>
        <_>
          12 1 1 21 -1.</_>
        <_>
          12 8 1 7 2.</_></rects>
      <tilted>0</tilted></_>
    <_>
      <rects>
        <_>
          12 9 2 4 -1.</_>
        <_>
          12 9 1 2 2.</_>
        <_>
          13 11 1 2 2.</_></rects>
      <tilted>0</tilted></_>
    <_>
      <rects>
        <_>
          12 11 2 3 -1.</_>
        <_>
          13 11 1 3 2.</_></rects>
      <tilted>0</tilted></_>
    <_>
      <rects>
        <_>
          12 14 4 2 -1.</_>
        <_>
          12 14 2 1 2.</_>
        <_>
          14 15 2 1 2.</_></rects>
      <tilted>0</tilted></_>
    <_>
      <rects>
        <_>
          12 19 1 2 -1.</_>
        <_>
          12 20 1 1 2.</_></rects>
      <tilted>0</tilted></_>
    <_>
      <rects>
        <_>
          12 19 3 4 -1.</_>
        <_>
          12 21 3 2 2.</_></rects>
      <tilted>0</tilted></_>
    <_>
      <rects>
        <_>
          12 20 2 4 -1.</_>
        <_>
          12 22 2 2 2.</_></rects>
      <tilted>0</tilted></_>
    <_>
      <rects>
        <_>
          12 23 3 1 -1.</_>
        <_>
          13 23 1 1 2.</_></rects>
      <tilted>0</tilted></_>
    <_>
      <rects>
        <_>
          13 2 5 2 -1.</_>
        <_>
          13 3 5 1 2.</_></rects>
      <tilted>0</tilted></_>
    <_>
      <rects>
        <_>
          13 3 2 2 -1.</_>
        <_>
          13 4 2 1 2.</_></rects>
      <tilted>0</tilted></_>
    <_>
      <rects>
        <_>
          13 8 4 6 -1.</_>
        <_>
          15 8 2 6 2.</_></rects>
      <tilted>0</tilted></_>
    <_>
      <rects>
        <_>
          13 9 4 4 -1.</_>
        <_>
          13 9 2 2 2.</_>
        <_>
          15 11 2 2 2.</_></rects>
      <tilted>0</tilted></_>
    <_>
      <rects>
        <_>
          13 10 1 2 -1.</_>
        <_>
          13 11 1 1 2.</_></rects>
      <tilted>0</tilted></_>
    <_>
      <rects>
        <_>
          13 11 1 2 -1.</_>
        <_>
          13 12 1 1 2.</_></rects>
      <tilted>0</tilted></_>
    <_>
      <rects>
        <_>
          13 13 2 1 -1.</_>
        <_>
          14 13 1 1 2.</_></rects>
      <tilted>0</tilted></_>
    <_>
      <rects>
        <_>
          13 13 1 2 -1.</_>
        <_>
          13 14 1 1 2.</_></rects>
      <tilted>0</tilted></_>
    <_>
      <rects>
        <_>
          13 13 2 4 -1.</_>
        <_>
          14 13 1 4 2.</_></rects>
      <tilted>0</tilted></_>
    <_>
      <rects>
        <_>
          13 15 2 1 -1.</_>
        <_>
          14 15 1 1 2.</_></rects>
      <tilted>0</tilted></_>
    <_>
      <rects>
        <_>
          13 16 1 2 -1.</_>
        <_>
          13 17 1 1 2.</_></rects>
      <tilted>0</tilted></_>
    <_>
      <rects>
        <_>
          13 17 1 2 -1.</_>
        <_>
          13 18 1 1 2.</_></rects>
      <tilted>0</tilted></_>
    <_>
      <rects>
        <_>
          13 17 3 6 -1.</_>
        <_>
          14 17 1 6 2.</_></rects>
      <tilted>0</tilted></_>
    <_>
      <rects>
        <_>
          14 2 2 2 -1.</_>
        <_>
          14 3 2 1 2.</_></rects>
      <tilted>0</tilted></_>
    <_>
      <rects>
        <_>
          14 2 3 2 -1.</_>
        <_>
          14 3 3 1 2.</_></rects>
      <tilted>0</tilted></_>
    <_>
      <rects>
        <_>
          14 3 10 2 -1.</_>
        <_>
          14 3 5 1 2.</_>
        <_>
          19 4 5 1 2.</_></rects>
      <tilted>0</tilted></_>
    <_>
      <rects>
        <_>
          14 8 4 14 -1.</_>
        <_>
          16 8 2 14 2.</_></rects>
      <tilted>0</tilted></_>
    <_>
      <rects>
        <_>
          14 11 2 2 -1.</_>
        <_>
          15 11 1 2 2.</_></rects>
      <tilted>0</tilted></_>
    <_>
      <rects>
        <_>
          14 12 2 2 -1.</_>
        <_>
          15 12 1 2 2.</_></rects>
      <tilted>0</tilted></_>
    <_>
      <rects>
        <_>
          14 13 1 4 -1.</_>
        <_>
          14 15 1 2 2.</_></rects>
      <tilted>0</tilted></_>
    <_>
      <rects>
        <_>
          14 15 2 1 -1.</_>
        <_>
          15 15 1 1 2.</_></rects>
      <tilted>0</tilted></_>
    <_>
      <rects>
        <_>
          14 16 8 1 -1.</_>
        <_>
          18 16 4 1 2.</_></rects>
      <tilted>0</tilted></_>
    <_>
      <rects>
        <_>
          15 1 1 2 -1.</_>
        <_>
          15 2 1 1 2.</_></rects>
      <tilted>0</tilted></_>
    <_>
      <rects>
        <_>
          15 10 4 2 -1.</_>
        <_>
          15 10 2 1 2.</_>
        <_>
          17 11 2 1 2.</_></rects>
      <tilted>0</tilted></_>
    <_>
      <rects>
        <_>
          15 11 1 2 -1.</_>
        <_>
          15 12 1 1 2.</_></rects>
      <tilted>0</tilted></_>
    <_>
      <rects>
        <_>
          15 16 2 2 -1.</_>
        <_>
          16 16 1 2 2.</_></rects>
      <tilted>0</tilted></_>
    <_>
      <rects>
        <_>
          16 10 2 8 -1.</_>
        <_>
          16 10 1 4 2.</_>
        <_>
          17 14 1 4 2.</_></rects>
      <tilted>0</tilted></_>
    <_>
      <rects>
        <_>
          16 13 2 2 -1.</_>
        <_>
          16 13 1 1 2.</_>
        <_>
          17 14 1 1 2.</_></rects>
      <tilted>0</tilted></_>
    <_>
      <rects>
        <_>
          16 15 2 1 -1.</_>
        <_>
          17 15 1 1 2.</_></rects>
      <tilted>0</tilted></_>
    <_>
      <rects>
        <_>
          16 18 4 6 -1.</_>
        <_>
          16 21 4 3 2.</_></rects>
      <tilted>0</tilted></_>
    <_>
      <rects>
        <_>
          17 0 6 21 -1.</_>
        <_>
          19 0 2 21 2.</_></rects>
      <tilted>0</tilted></_>
    <_>
      <rects>
        <_>
          17 12 2 2 -1.</_>
        <_>
          18 12 1 2 2.</_></rects>
      <tilted>0</tilted></_>
    <_>
      <rects>
        <_>
          17 14 4 5 -1.</_>
        <_>
          19 14 2 5 2.</_></rects>
      <tilted>0</tilted></_>
    <_>
      <rects>
        <_>
          18 2 6 22 -1.</_>
        <_>
          18 13 6 11 2.</_></rects>
      <tilted>0</tilted></_>
    <_>
      <rects>
        <_>
          18 8 2 6 -1.</_>
        <_>
          18 8 1 3 2.</_>
        <_>
          19 11 1 3 2.</_></rects>
      <tilted>0</tilted></_>
    <_>
      <rects>
        <_>
          19 13 2 8 -1.</_>
        <_>
          20 13 1 8 2.</_></rects>
      <tilted>0</tilted></_>
    <_>
      <rects>
        <_>
          19 18 3 3 -1.</_>
        <_>
          19 19 3 1 2.</_></rects>
      <tilted>0</tilted></_>
    <_>
      <rects>
        <_>
          21 9 3 11 -1.</_>
        <_>
          22 9 1 11 2.</_></rects>
      <tilted>0</tilted></_></features></cascade>
</opencv_storage>
