<?xml version="1.0"?>
<opencv_storage>
<stage5>
  <maxWeakCount>18</maxWeakCount>
  <stageThreshold>-1.1988637447357178e+00</stageThreshold>
  <weakClassifiers>
    <_>
      <internalNodes>
        0 -1 104678 -5.7533454149961472e-02</internalNodes>
      <leafValues>
        1.2311015278100967e-01 -5.7158964872360229e-01</leafValues></_>
    <_>
      <internalNodes>
        0 -1 129220 -5.0840582698583603e-03</internalNodes>
      <leafValues>
        5.6398248672485352e-01 -1.6905097663402557e-01</leafValues></_>
    <_>
      <internalNodes>
        0 -1 108473 7.7381948940455914e-03</internalNodes>
      <leafValues>
        -1.3057214021682739e-01 5.8232194185256958e-01</leafValues></_>
    <_>
      <internalNodes>
        0 -1 38497 -2.5466454029083252e-01</internalNodes>
      <leafValues>
        1.5174113214015961e-01 -5.3239864110946655e-01</leafValues></_>
    <_>
      <internalNodes>
        0 -1 91776 -5.0299191474914551e-01</internalNodes>
      <leafValues>
        -6.1437213420867920e-01 1.6572158038616180e-01</leafValues></_>
    <_>
      <internalNodes>
        0 -1 94871 -6.2075280584394932e-03</internalNodes>
      <leafValues>
        6.4242202043533325e-01 -1.2956228852272034e-01</leafValues></_>
    <_>
      <internalNodes>
        0 -1 50179 -3.0045479536056519e-01</internalNodes>
      <leafValues>
        -6.9330590963363647e-01 9.2818565666675568e-02</leafValues></_>
    <_>
      <internalNodes>
        0 -1 113759 -8.8899518596008420e-04</internalNodes>
      <leafValues>
        3.7601187825202942e-01 -1.6771973669528961e-01</leafValues></_>
    <_>
      <internalNodes>
        0 -1 62560 -3.7922004703432322e-03</internalNodes>
      <leafValues>
        4.6516400575637817e-01 -1.3028222322463989e-01</leafValues></_>
    <_>
      <internalNodes>
        0 -1 138084 2.7952510863542557e-03</internalNodes>
      <leafValues>
        -1.3212685286998749e-01 5.4547512531280518e-01</leafValues></_>
    <_>
      <internalNodes>
        0 -1 131803 -7.0879189297556877e-04</internalNodes>
      <leafValues>
        4.3938812613487244e-01 -1.5651424229145050e-01</leafValues></_>
    <_>
      <internalNodes>
        0 -1 131573 -4.6357875689864159e-03</internalNodes>
      <leafValues>
        4.2438018321990967e-01 -1.8562233448028564e-01</leafValues></_>
    <_>
      <internalNodes>
        0 -1 4385 -1.3275344856083393e-02</internalNodes>
      <leafValues>
        2.4758107960224152e-01 -3.1216832995414734e-01</leafValues></_>
    <_>
      <internalNodes>
        0 -1 135296 5.1536308601498604e-03</internalNodes>
      <leafValues>
        -1.2201315909624100e-01 5.4168295860290527e-01</leafValues></_>
    <_>
      <internalNodes>
        0 -1 126897 -2.4678953923285007e-03</internalNodes>
      <leafValues>
        4.3312337994575500e-01 -1.4340022206306458e-01</leafValues></_>
    <_>
      <internalNodes>
        0 -1 96786 -1.1423951946198940e-03</internalNodes>
      <leafValues>
        4.9094268679618835e-01 -1.2627449631690979e-01</leafValues></_>
    <_>
      <internalNodes>
        0 -1 63879 3.7623330950737000e-02</internalNodes>
      <leafValues>
        -2.1238879859447479e-01 3.1122896075248718e-01</leafValues></_>
    <_>
      <internalNodes>
        0 -1 27468 7.7158942818641663e-02</internalNodes>
      <leafValues>
        1.3953599333763123e-01 -5.9065741300582886e-01</leafValues></_></weakClassifiers></stage5>
</opencv_storage>
