<?xml version="1.0"?>
<opencv_storage>
<stage0>
  <maxWeakCount>6</maxWeakCount>
  <stageThreshold>-1.4375891685485840e+00</stageThreshold>
  <weakClassifiers>
    <_>
      <internalNodes>
        0 -1 112073 -6.2746912240982056e-02</internalNodes>
      <leafValues>
        5.3623187541961670e-01 -6.3184082508087158e-01</leafValues></_>
    <_>
      <internalNodes>
        0 -1 91222 -9.2675971984863281e-01</internalNodes>
      <leafValues>
        -9.4919419288635254e-01 2.6356172561645508e-01</leafValues></_>
    <_>
      <internalNodes>
        0 -1 131282 -9.3906763941049576e-03</internalNodes>
      <leafValues>
        5.4041683673858643e-01 -3.2680964469909668e-01</leafValues></_>
    <_>
      <internalNodes>
        0 -1 148453 -1.7475168406963348e-01</internalNodes>
      <leafValues>
        1.7498473823070526e-01 -7.1607875823974609e-01</leafValues></_>
    <_>
      <internalNodes>
        0 -1 582 -3.6119794845581055e-01</internalNodes>
      <leafValues>
        -7.8049945831298828e-01 1.5913607180118561e-01</leafValues></_>
    <_>
      <internalNodes>
        0 -1 96900 9.7783785313367844e-03</internalNodes>
      <leafValues>
        -1.8555779755115509e-01 6.7777240276336670e-01</leafValues></_></weakClassifiers></stage0>
</opencv_storage>
