<?xml version="1.0"?>
<opencv_storage>
<cascade>
  <stageType>BOOST</stageType>
  <featureType>HAAR</featureType>
  <height>24</height>
  <width>24</width>
  <stageParams>
    <boostType>GAB</boostType>
    <minHitRate>9.9000000953674316e-01</minHitRate>
    <maxFalseAlarm>3.0000001192092896e-01</maxFalseAlarm>
    <weightTrimRate>9.4999999999999996e-01</weightTrimRate>
    <maxDepth>1</maxDepth>
    <maxWeakCount>100</maxWeakCount></stageParams>
  <featureParams>
    <maxCatCount>0</maxCatCount>
    <featSize>1</featSize>
    <mode>BASIC</mode></featureParams>
  <stageNum>10</stageNum>
  <stages>
    <!-- stage 0 -->
    <_>
      <maxWeakCount>8</maxWeakCount>
      <stageThreshold>-1.6899919509887695e+00</stageThreshold>
      <weakClassifiers>
        <_>
          <internalNodes>
            0 -1 200 -5.5795781314373016e-02</internalNodes>
          <leafValues>
            -1.0845987126231194e-02 -8.9204210042953491e-01</leafValues></_>
        <_>
          <internalNodes>
            0 -1 100 -6.8096315860748291e-01</internalNodes>
          <leafValues>
            -9.5048350095748901e-01 1.2704174220561981e-01</leafValues></_>
        <_>
          <internalNodes>
            0 -1 27 -1.9959495961666107e-01</internalNodes>
          <leafValues>
            -9.6590262651443481e-01 2.3106664419174194e-02</leafValues></_>
        <_>
          <internalNodes>
            0 -1 15 -5.2137572318315506e-02</internalNodes>
          <leafValues>
            3.1746208667755127e-01 -4.5725411176681519e-01</leafValues></_>
        <_>
          <internalNodes>
            0 -1 51 -1.8847383558750153e-01</internalNodes>
          <leafValues>
            1.8591053783893585e-01 -8.1642031669616699e-01</leafValues></_>
        <_>
          <internalNodes>
            0 -1 76 -3.8295183330774307e-02</internalNodes>
          <leafValues>
            -8.8795620203018188e-01 9.5853351056575775e-02</leafValues></_>
        <_>
          <internalNodes>
            0 -1 178 2.0952713675796986e-03</internalNodes>
          <leafValues>
            -2.0121283829212189e-01 5.8057361841201782e-01</leafValues></_>
        <_>
          <internalNodes>
            0 -1 171 3.6822590045630932e-03</internalNodes>
          <leafValues>
            -1.6597270965576172e-01 6.5977025032043457e-01</leafValues></_></weakClassifiers></_>
    <!-- stage 1 -->
    <_>
      <maxWeakCount>15</maxWeakCount>
      <stageThreshold>-2.0531358718872070e+00</stageThreshold>
      <weakClassifiers>
        <_>
          <internalNodes>
            0 -1 239 -1.7765864729881287e-02</internalNodes>
          <leafValues>
            -1.6326530277729034e-01 -8.6844164133071899e-01</leafValues></_>
        <_>
          <internalNodes>
            0 -1 85 -6.7646183073520660e-02</internalNodes>
          <leafValues>
            -8.6306765675544739e-02 -8.3774709701538086e-01</leafValues></_>
        <_>
          <internalNodes>
            0 -1 148 -4.7530494630336761e-03</internalNodes>
          <leafValues>
            5.7457786798477173e-01 -2.6951444149017334e-01</leafValues></_>
        <_>
          <internalNodes>
            0 -1 104 5.6058643385767937e-03</internalNodes>
          <leafValues>
            -1.9810897111892700e-01 7.0238894224166870e-01</leafValues></_>
        <_>
          <internalNodes>
            0 -1 162 1.4994679950177670e-03</internalNodes>
          <leafValues>
            -1.8853428959846497e-01 5.9475344419479370e-01</leafValues></_>
        <_>
          <internalNodes>
            0 -1 160 -7.3641695780679584e-04</internalNodes>
          <leafValues>
            5.5058169364929199e-01 -1.7409172654151917e-01</leafValues></_>
        <_>
          <internalNodes>
            0 -1 248 -2.1456605754792690e-03</internalNodes>
          <leafValues>
            6.0027271509170532e-01 -1.5685069561004639e-01</leafValues></_>
        <_>
          <internalNodes>
            0 -1 79 2.4168279767036438e-01</internalNodes>
          <leafValues>
            1.8014754354953766e-01 -8.1246942281723022e-01</leafValues></_>
        <_>
          <internalNodes>
            0 -1 270 -2.9789190739393234e-02</internalNodes>
          <leafValues>
            1.0995133221149445e-01 -7.6072072982788086e-01</leafValues></_>
        <_>
          <internalNodes>
            0 -1 217 -1.6859611496329308e-02</internalNodes>
          <leafValues>
            4.5531541109085083e-01 -2.0762333273887634e-01</leafValues></_>
        <_>
          <internalNodes>
            0 -1 244 5.1671097753569484e-04</internalNodes>
          <leafValues>
            -2.0643614232540131e-01 4.5372980833053589e-01</leafValues></_>
        <_>
          <internalNodes>
            0 -1 224 -7.0128554943948984e-04</internalNodes>
          <leafValues>
            4.7022616863250732e-01 -1.7079807817935944e-01</leafValues></_>
        <_>
          <internalNodes>
            0 -1 222 1.3957548653706908e-03</internalNodes>
          <leafValues>
            -1.7106613516807556e-01 5.0495427846908569e-01</leafValues></_>
        <_>
          <internalNodes>
            0 -1 276 2.2112547885626554e-03</internalNodes>
          <leafValues>
            -2.0093467831611633e-01 4.6518787741661072e-01</leafValues></_>
        <_>
          <internalNodes>
            0 -1 257 -3.4347954206168652e-03</internalNodes>
          <leafValues>
            4.2381349205970764e-01 -2.0123589038848877e-01</leafValues></_></weakClassifiers></_>
    <!-- stage 2 -->
    <_>
      <maxWeakCount>23</maxWeakCount>
      <stageThreshold>-1.9221180677413940e+00</stageThreshold>
      <weakClassifiers>
        <_>
          <internalNodes>
            0 -1 66 -1.0636812075972557e-02</internalNodes>
          <leafValues>
            -3.4366926550865173e-01 -8.5409742593765259e-01</leafValues></_>
        <_>
          <internalNodes>
            0 -1 132 -8.4460750222206116e-02</internalNodes>
          <leafValues>
            4.6058163046836853e-02 -5.7346647977828979e-01</leafValues></_>
        <_>
          <internalNodes>
            0 -1 208 -5.9451228007674217e-03</internalNodes>
          <leafValues>
            5.4922252893447876e-01 -1.9492621719837189e-01</leafValues></_>
        <_>
          <internalNodes>
            0 -1 37 -9.4458842650055885e-03</internalNodes>
          <leafValues>
            2.9322746396064758e-01 -2.5414216518402100e-01</leafValues></_>
        <_>
          <internalNodes>
            0 -1 177 2.5578017812222242e-03</internalNodes>
          <leafValues>
            -1.3965226709842682e-01 4.9174681305885315e-01</leafValues></_>
        <_>
          <internalNodes>
            0 -1 41 -4.3931275606155396e-01</internalNodes>
          <leafValues>
            9.2411130666732788e-02 -8.2250761985778809e-01</leafValues></_>
        <_>
          <internalNodes>
            0 -1 213 1.8989740638062358e-03</internalNodes>
          <leafValues>
            -1.1037190258502960e-01 6.4139038324356079e-01</leafValues></_>
        <_>
          <internalNodes>
            0 -1 195 -3.4188632853329182e-03</internalNodes>
          <leafValues>
            6.3138061761856079e-01 -1.2535938620567322e-01</leafValues></_>
        <_>
          <internalNodes>
            0 -1 45 -2.5837916880846024e-02</internalNodes>
          <leafValues>
            -6.3197517395019531e-01 1.2084548175334930e-01</leafValues></_>
        <_>
          <internalNodes>
            0 -1 205 -6.5537299960851669e-03</internalNodes>
          <leafValues>
            4.7847950458526611e-01 -1.4140225946903229e-01</leafValues></_>
        <_>
          <internalNodes>
            0 -1 182 1.6081077046692371e-03</internalNodes>
          <leafValues>
            -1.6191877424716949e-01 3.8781458139419556e-01</leafValues></_>
        <_>
          <internalNodes>
            0 -1 184 -7.1486947126686573e-04</internalNodes>
          <leafValues>
            3.7056624889373779e-01 -1.9246651232242584e-01</leafValues></_>
        <_>
          <internalNodes>
            0 -1 144 5.8274902403354645e-03</internalNodes>
          <leafValues>
            -1.0103692114353180e-01 5.1710098981857300e-01</leafValues></_>
        <_>
          <internalNodes>
            0 -1 125 1.0735685005784035e-02</internalNodes>
          <leafValues>
            -1.2665715813636780e-01 5.1029461622238159e-01</leafValues></_>
        <_>
          <internalNodes>
            0 -1 233 -6.6779064945876598e-04</internalNodes>
          <leafValues>
            4.3574982881546021e-01 -1.5625391900539398e-01</leafValues></_>
        <_>
          <internalNodes>
            0 -1 26 4.6582285314798355e-02</internalNodes>
          <leafValues>
            8.0815583467483521e-02 -8.3219528198242188e-01</leafValues></_>
        <_>
          <internalNodes>
            0 -1 245 -9.7140611615031958e-04</internalNodes>
          <leafValues>
            3.2430636882781982e-01 -1.9163204729557037e-01</leafValues></_>
        <_>
          <internalNodes>
            0 -1 94 -7.4218758381903172e-03</internalNodes>
          <leafValues>
            5.5897951126098633e-01 -1.1171573400497437e-01</leafValues></_>
        <_>
          <internalNodes>
            0 -1 267 -1.4788606204092503e-03</internalNodes>
          <leafValues>
            3.4339210391044617e-01 -1.8403859436511993e-01</leafValues></_>
        <_>
          <internalNodes>
            0 -1 274 -3.0753102153539658e-02</internalNodes>
          <leafValues>
            8.5170760750770569e-02 -7.3744601011276245e-01</leafValues></_>
        <_>
          <internalNodes>
            0 -1 221 -7.8526674769818783e-04</internalNodes>
          <leafValues>
            3.6659631133079529e-01 -1.7937593162059784e-01</leafValues></_>
        <_>
          <internalNodes>
            0 -1 61 8.3552692085504532e-03</internalNodes>
          <leafValues>
            -1.3436625897884369e-01 4.6866369247436523e-01</leafValues></_>
        <_>
          <internalNodes>
            0 -1 170 -6.5290480852127075e-03</internalNodes>
          <leafValues>
            5.0225079059600830e-01 -1.1583530902862549e-01</leafValues></_></weakClassifiers></_>
    <!-- stage 3 -->
    <_>
      <maxWeakCount>29</maxWeakCount>
      <stageThreshold>-1.8314960002899170e+00</stageThreshold>
      <weakClassifiers>
        <_>
          <internalNodes>
            0 -1 157 1.1939508840441704e-02</internalNodes>
          <leafValues>
            -8.5854315757751465e-01 -3.3603239059448242e-01</leafValues></_>
        <_>
          <internalNodes>
            0 -1 256 -1.6599353402853012e-02</internalNodes>
          <leafValues>
            2.7024546638131142e-02 -5.2569258213043213e-01</leafValues></_>
        <_>
          <internalNodes>
            0 -1 199 -4.1175847873091698e-03</internalNodes>
          <leafValues>
            4.6501243114471436e-01 -1.8877713382244110e-01</leafValues></_>
        <_>
          <internalNodes>
            0 -1 279 6.7167291417717934e-03</internalNodes>
          <leafValues>
            -2.0378167927265167e-01 3.1445595622062683e-01</leafValues></_>
        <_>
          <internalNodes>
            0 -1 3 -6.4415417611598969e-02</internalNodes>
          <leafValues>
            -4.9113345146179199e-01 1.1698797345161438e-01</leafValues></_>
        <_>
          <internalNodes>
            0 -1 137 3.1641514506191015e-03</internalNodes>
          <leafValues>
            -1.3729879260063171e-01 3.5505524277687073e-01</leafValues></_>
        <_>
          <internalNodes>
            0 -1 174 -1.6483883373439312e-03</internalNodes>
          <leafValues>
            4.6603703498840332e-01 -1.0898479074239731e-01</leafValues></_>
        <_>
          <internalNodes>
            0 -1 84 -8.7628941982984543e-03</internalNodes>
          <leafValues>
            4.0493792295455933e-01 -1.3639372587203979e-01</leafValues></_>
        <_>
          <internalNodes>
            0 -1 246 6.5056746825575829e-03</internalNodes>
          <leafValues>
            -9.6535317599773407e-02 5.7364571094512939e-01</leafValues></_>
        <_>
          <internalNodes>
            0 -1 234 3.3346985001116991e-03</internalNodes>
          <leafValues>
            -1.4900240302085876e-01 3.0947521328926086e-01</leafValues></_>
        <_>
          <internalNodes>
            0 -1 101 6.8258464336395264e-02</internalNodes>
          <leafValues>
            7.5752072036266327e-02 -6.8781220912933350e-01</leafValues></_>
        <_>
          <internalNodes>
            0 -1 147 3.5668071359395981e-02</internalNodes>
          <leafValues>
            -1.3489443063735962e-01 3.7615624070167542e-01</leafValues></_>
        <_>
          <internalNodes>
            0 -1 126 6.5746018663048744e-03</internalNodes>
          <leafValues>
            -1.1204139143228531e-01 4.2647075653076172e-01</leafValues></_>
        <_>
          <internalNodes>
            0 -1 266 -2.0351619459688663e-03</internalNodes>
          <leafValues>
            3.3661648631095886e-01 -1.3864096999168396e-01</leafValues></_>
        <_>
          <internalNodes>
            0 -1 96 2.9606339521706104e-03</internalNodes>
          <leafValues>
            -1.3165087997913361e-01 3.6774981021881104e-01</leafValues></_>
        <_>
          <internalNodes>
            0 -1 163 -5.0820074975490570e-03</internalNodes>
          <leafValues>
            3.3004221320152283e-01 -1.5760797262191772e-01</leafValues></_>
        <_>
          <internalNodes>
            0 -1 180 6.8693584762513638e-03</internalNodes>
          <leafValues>
            -8.7603174149990082e-02 6.2982338666915894e-01</leafValues></_>
        <_>
          <internalNodes>
            0 -1 159 3.7691486068069935e-03</internalNodes>
          <leafValues>
            -1.1408888548612595e-01 4.2277532815933228e-01</leafValues></_>
        <_>
          <internalNodes>
            0 -1 14 -4.3539036996662617e-03</internalNodes>
          <leafValues>
            -3.9555999636650085e-01 1.4216090738773346e-01</leafValues></_>
        <_>
          <internalNodes>
            0 -1 232 8.5478618741035461e-02</internalNodes>
          <leafValues>
            7.9644300043582916e-02 -6.0599601268768311e-01</leafValues></_>
        <_>
          <internalNodes>
            0 -1 80 9.6329767256975174e-03</internalNodes>
          <leafValues>
            7.2270259261131287e-02 -6.2735176086425781e-01</leafValues></_>
        <_>
          <internalNodes>
            0 -1 121 -1.8500220030546188e-02</internalNodes>
          <leafValues>
            -7.8974676132202148e-01 5.2923619747161865e-02</leafValues></_>
        <_>
          <internalNodes>
            0 -1 44 -2.6821666955947876e-01</internalNodes>
          <leafValues>
            4.2159747332334518e-02 -9.1664665937423706e-01</leafValues></_>
        <_>
          <internalNodes>
            0 -1 62 7.5818322598934174e-02</internalNodes>
          <leafValues>
            4.2957153171300888e-02 -8.7963992357254028e-01</leafValues></_>
        <_>
          <internalNodes>
            0 -1 176 -2.4474016390740871e-03</internalNodes>
          <leafValues>
            4.5827597379684448e-01 -1.1432620882987976e-01</leafValues></_>
        <_>
          <internalNodes>
            0 -1 204 -7.8452020883560181e-02</internalNodes>
          <leafValues>
            7.1740680932998657e-01 -5.2280060946941376e-02</leafValues></_>
        <_>
          <internalNodes>
            0 -1 260 1.2433047406375408e-02</internalNodes>
          <leafValues>
            -1.8963791429996490e-01 3.0018267035484314e-01</leafValues></_>
        <_>
          <internalNodes>
            0 -1 236 -1.9960971549153328e-03</internalNodes>
          <leafValues>
            2.9222366213798523e-01 -1.4913478493690491e-01</leafValues></_>
        <_>
          <internalNodes>
            0 -1 240 5.6633325293660164e-03</internalNodes>
          <leafValues>
            -1.2682400643825531e-01 3.6745455861091614e-01</leafValues></_></weakClassifiers></_>
    <!-- stage 4 -->
    <_>
      <maxWeakCount>31</maxWeakCount>
      <stageThreshold>-1.8250976800918579e+00</stageThreshold>
      <weakClassifiers>
        <_>
          <internalNodes>
            0 -1 98 -7.6152570545673370e-02</internalNodes>
          <leafValues>
            -6.6473990678787231e-01 -9.0290266275405884e-01</leafValues></_>
        <_>
          <internalNodes>
            0 -1 220 -3.3353790640830994e-02</internalNodes>
          <leafValues>
            -6.6886954009532928e-02 -5.3511059284210205e-01</leafValues></_>
        <_>
          <internalNodes>
            0 -1 2 -5.1260161399841309e-01</internalNodes>
          <leafValues>
            2.9317542910575867e-02 -8.8137400150299072e-01</leafValues></_>
        <_>
          <internalNodes>
            0 -1 65 1.4385815709829330e-02</internalNodes>
          <leafValues>
            -8.5592947900295258e-02 6.0784381628036499e-01</leafValues></_>
        <_>
          <internalNodes>
            0 -1 188 -3.2500803936272860e-03</internalNodes>
          <leafValues>
            5.2839028835296631e-01 -1.1742224544286728e-01</leafValues></_>
        <_>
          <internalNodes>
            0 -1 149 -2.0954015781171620e-04</internalNodes>
          <leafValues>
            -3.7179300189018250e-01 1.4796961843967438e-01</leafValues></_>
        <_>
          <internalNodes>
            0 -1 69 1.5629053115844727e-02</internalNodes>
          <leafValues>
            -1.0744203627109528e-01 5.5658566951751709e-01</leafValues></_>
        <_>
          <internalNodes>
            0 -1 106 -4.7433469444513321e-03</internalNodes>
          <leafValues>
            5.0755447149276733e-01 -9.7031369805335999e-02</leafValues></_>
        <_>
          <internalNodes>
            0 -1 146 3.5176466917619109e-04</internalNodes>
          <leafValues>
            1.9073787331581116e-01 -3.1732794642448425e-01</leafValues></_>
        <_>
          <internalNodes>
            0 -1 135 1.9736971706151962e-02</internalNodes>
          <leafValues>
            -1.2062441557645798e-01 5.2960169315338135e-01</leafValues></_>
        <_>
          <internalNodes>
            0 -1 203 -9.2822760343551636e-02</internalNodes>
          <leafValues>
            5.4447829723358154e-01 -1.0148874670267105e-01</leafValues></_>
        <_>
          <internalNodes>
            0 -1 32 1.6760084033012390e-01</internalNodes>
          <leafValues>
            1.2448476999998093e-01 -5.3827637434005737e-01</leafValues></_>
        <_>
          <internalNodes>
            0 -1 113 2.2693563252687454e-02</internalNodes>
          <leafValues>
            -1.1919702589511871e-01 4.8032408952713013e-01</leafValues></_>
        <_>
          <internalNodes>
            0 -1 255 -1.4860705705359578e-03</internalNodes>
          <leafValues>
            3.9428827166557312e-01 -1.3156142830848694e-01</leafValues></_>
        <_>
          <internalNodes>
            0 -1 289 -2.3432066664099693e-03</internalNodes>
          <leafValues>
            6.6719688475131989e-02 -9.0466850996017456e-01</leafValues></_>
        <_>
          <internalNodes>
            0 -1 145 -4.2184483027085662e-04</internalNodes>
          <leafValues>
            -4.3461412191390991e-01 8.2508541643619537e-02</leafValues></_>
        <_>
          <internalNodes>
            0 -1 216 -1.1117137037217617e-03</internalNodes>
          <leafValues>
            3.8651219010353088e-01 -1.1325021833181381e-01</leafValues></_>
        <_>
          <internalNodes>
            0 -1 54 -1.0058433748781681e-02</internalNodes>
          <leafValues>
            4.3172737956047058e-01 -9.6590049564838409e-02</leafValues></_>
        <_>
          <internalNodes>
            0 -1 168 -3.5569950938224792e-02</internalNodes>
          <leafValues>
            -6.3640397787094116e-01 7.5892746448516846e-02</leafValues></_>
        <_>
          <internalNodes>
            0 -1 243 -1.8714530160650611e-03</internalNodes>
          <leafValues>
            3.8983678817749023e-01 -1.1922547966241837e-01</leafValues></_>
        <_>
          <internalNodes>
            0 -1 21 -1.2780129909515381e-03</internalNodes>
          <leafValues>
            -4.1920873522758484e-01 1.0285718739032745e-01</leafValues></_>
        <_>
          <internalNodes>
            0 -1 219 -3.9636634755879641e-04</internalNodes>
          <leafValues>
            2.3063619434833527e-01 -1.8650887906551361e-01</leafValues></_>
        <_>
          <internalNodes>
            0 -1 107 -2.9842879157513380e-03</internalNodes>
          <leafValues>
            4.5988324284553528e-01 -8.4592223167419434e-02</leafValues></_>
        <_>
          <internalNodes>
            0 -1 285 3.9831488393247128e-03</internalNodes>
          <leafValues>
            -1.0611808300018311e-01 3.7073922157287598e-01</leafValues></_>
        <_>
          <internalNodes>
            0 -1 143 -1.3800456654280424e-03</internalNodes>
          <leafValues>
            2.1623188257217407e-01 -1.8415118753910065e-01</leafValues></_>
        <_>
          <internalNodes>
            0 -1 228 1.6967847477644682e-04</internalNodes>
          <leafValues>
            -1.7370446026325226e-01 2.1373078227043152e-01</leafValues></_>
        <_>
          <internalNodes>
            0 -1 151 -6.6588148474693298e-02</internalNodes>
          <leafValues>
            4.1023546457290649e-01 -1.0456128418445587e-01</leafValues></_>
        <_>
          <internalNodes>
            0 -1 130 3.2230406999588013e-02</internalNodes>
          <leafValues>
            -1.5933547914028168e-01 2.9548269510269165e-01</leafValues></_>
        <_>
          <internalNodes>
            0 -1 72 -1.7696006689220667e-03</internalNodes>
          <leafValues>
            1.0623379796743393e-01 -3.7742477655410767e-01</leafValues></_>
        <_>
          <internalNodes>
            0 -1 133 -1.1069491505622864e-02</internalNodes>
          <leafValues>
            4.8109290003776550e-01 -8.0966323614120483e-02</leafValues></_>
        <_>
          <internalNodes>
            0 -1 46 2.1315933554433286e-04</internalNodes>
          <leafValues>
            1.2740792334079742e-01 -3.2502233982086182e-01</leafValues></_></weakClassifiers></_>
    <!-- stage 5 -->
    <_>
      <maxWeakCount>34</maxWeakCount>
      <stageThreshold>-1.8507285118103027e+00</stageThreshold>
      <weakClassifiers>
        <_>
          <internalNodes>
            0 -1 81 1.6896029934287071e-02</internalNodes>
          <leafValues>
            -8.5247147083282471e-01 -3.4736841917037964e-01</leafValues></_>
        <_>
          <internalNodes>
            0 -1 48 -6.2630278989672661e-03</internalNodes>
          <leafValues>
            -2.7129355072975159e-01 -8.9633554220199585e-01</leafValues></_>
        <_>
          <internalNodes>
            0 -1 67 1.7324423417448997e-02</internalNodes>
          <leafValues>
            -1.4485771954059601e-01 5.2064770460128784e-01</leafValues></_>
        <_>
          <internalNodes>
            0 -1 4 -2.6003897655755281e-03</internalNodes>
          <leafValues>
            6.3165940344333649e-02 -8.8650053739547729e-01</leafValues></_>
        <_>
          <internalNodes>
            0 -1 42 -1.6896847635507584e-02</internalNodes>
          <leafValues>
            5.9673297405242920e-01 -8.1271044909954071e-02</leafValues></_>
        <_>
          <internalNodes>
            0 -1 139 9.2188864946365356e-03</internalNodes>
          <leafValues>
            -2.3104137182235718e-01 2.4576397240161896e-01</leafValues></_>
        <_>
          <internalNodes>
            0 -1 99 -1.9879372417926788e-01</internalNodes>
          <leafValues>
            -2.3077711462974548e-01 2.3458476364612579e-01</leafValues></_>
        <_>
          <internalNodes>
            0 -1 0 5.7042002677917480e-02</internalNodes>
          <leafValues>
            4.4137220829725266e-02 -6.9533085823059082e-01</leafValues></_>
        <_>
          <internalNodes>
            0 -1 40 9.8750053439289331e-04</internalNodes>
          <leafValues>
            -2.2283029556274414e-01 2.1791033446788788e-01</leafValues></_>
        <_>
          <internalNodes>
            0 -1 251 7.4167584534734488e-04</internalNodes>
          <leafValues>
            -1.6942265629768372e-01 2.6459482312202454e-01</leafValues></_>
        <_>
          <internalNodes>
            0 -1 250 5.3455086890608072e-04</internalNodes>
          <leafValues>
            -1.1417338997125626e-01 3.1511148810386658e-01</leafValues></_>
        <_>
          <internalNodes>
            0 -1 202 -6.0458697378635406e-02</internalNodes>
          <leafValues>
            3.3261483907699585e-01 -1.4184863865375519e-01</leafValues></_>
        <_>
          <internalNodes>
            0 -1 253 -5.5069276131689548e-03</internalNodes>
          <leafValues>
            4.5238384604454041e-01 -1.0957624763250351e-01</leafValues></_>
        <_>
          <internalNodes>
            0 -1 78 -9.6040412783622742e-02</internalNodes>
          <leafValues>
            -6.2652164697647095e-01 6.4556166529655457e-02</leafValues></_>
        <_>
          <internalNodes>
            0 -1 223 2.0488961599767208e-03</internalNodes>
          <leafValues>
            -1.2033063918352127e-01 3.8952013850212097e-01</leafValues></_>
        <_>
          <internalNodes>
            0 -1 241 -1.6313630621880293e-03</internalNodes>
          <leafValues>
            3.2530310750007629e-01 -1.3854134082794189e-01</leafValues></_>
        <_>
          <internalNodes>
            0 -1 164 -8.8036316446959972e-04</internalNodes>
          <leafValues>
            2.8731128573417664e-01 -1.2032909691333771e-01</leafValues></_>
        <_>
          <internalNodes>
            0 -1 86 3.8305900525301695e-03</internalNodes>
          <leafValues>
            -9.5073290169239044e-02 3.6780768632888794e-01</leafValues></_>
        <_>
          <internalNodes>
            0 -1 209 -1.3871572446078062e-04</internalNodes>
          <leafValues>
            -2.7968996763229370e-01 1.2526832520961761e-01</leafValues></_>
        <_>
          <internalNodes>
            0 -1 169 1.1205563787370920e-03</internalNodes>
          <leafValues>
            1.1032260209321976e-01 -3.6594909429550171e-01</leafValues></_>
        <_>
          <internalNodes>
            0 -1 24 -1.4302255585789680e-02</internalNodes>
          <leafValues>
            1.4764463901519775e-01 -2.7249160408973694e-01</leafValues></_>
        <_>
          <internalNodes>
            0 -1 35 -3.9060868322849274e-02</internalNodes>
          <leafValues>
            -3.7654390931129456e-01 1.1295715719461441e-01</leafValues></_>
        <_>
          <internalNodes>
            0 -1 281 -2.7082161977887154e-03</internalNodes>
          <leafValues>
            3.0767598748207092e-01 -1.2722450494766235e-01</leafValues></_>
        <_>
          <internalNodes>
            0 -1 296 -2.4568554945290089e-03</internalNodes>
          <leafValues>
            5.1428660750389099e-02 -8.7463963031768799e-01</leafValues></_>
        <_>
          <internalNodes>
            0 -1 31 -1.1639375239610672e-02</internalNodes>
          <leafValues>
            4.2589110136032104e-01 -9.8988488316535950e-02</leafValues></_>
        <_>
          <internalNodes>
            0 -1 11 -6.0272854752838612e-03</internalNodes>
          <leafValues>
            3.8409832119941711e-01 -9.6133328974246979e-02</leafValues></_>
        <_>
          <internalNodes>
            0 -1 238 1.6811012756079435e-03</internalNodes>
          <leafValues>
            -9.9854566156864166e-02 3.6569216847419739e-01</leafValues></_>
        <_>
          <internalNodes>
            0 -1 286 5.3227511234581470e-03</internalNodes>
          <leafValues>
            -6.0261327773332596e-02 6.2465786933898926e-01</leafValues></_>
        <_>
          <internalNodes>
            0 -1 207 -5.4848864674568176e-03</internalNodes>
          <leafValues>
            3.5909396409988403e-01 -9.1733530163764954e-02</leafValues></_>
        <_>
          <internalNodes>
            0 -1 167 -1.6813370166346431e-03</internalNodes>
          <leafValues>
            3.9214006066322327e-01 -9.3775287270545959e-02</leafValues></_>
        <_>
          <internalNodes>
            0 -1 129 -7.4640884995460510e-02</internalNodes>
          <leafValues>
            2.0368027687072754e-01 -2.0151627063751221e-01</leafValues></_>
        <_>
          <internalNodes>
            0 -1 131 4.6197451651096344e-02</internalNodes>
          <leafValues>
            -7.7574059367179871e-02 5.2429854869842529e-01</leafValues></_>
        <_>
          <internalNodes>
            0 -1 173 -3.4383111633360386e-03</internalNodes>
          <leafValues>
            4.6969214081764221e-01 -7.2680294513702393e-02</leafValues></_>
        <_>
          <internalNodes>
            0 -1 89 4.5077325776219368e-03</internalNodes>
          <leafValues>
            7.5852461159229279e-02 -5.5322545766830444e-01</leafValues></_></weakClassifiers></_>
    <!-- stage 6 -->
    <_>
      <maxWeakCount>40</maxWeakCount>
      <stageThreshold>-1.7082085609436035e+00</stageThreshold>
      <weakClassifiers>
        <_>
          <internalNodes>
            0 -1 103 2.4308764841407537e-03</internalNodes>
          <leafValues>
            -8.7003290653228760e-01 -6.5586590766906738e-01</leafValues></_>
        <_>
          <internalNodes>
            0 -1 150 -3.1600557267665863e-02</internalNodes>
          <leafValues>
            -2.4291978776454926e-01 -7.1362394094467163e-01</leafValues></_>
        <_>
          <internalNodes>
            0 -1 272 -5.8808878064155579e-02</internalNodes>
          <leafValues>
            1.7378389835357666e-02 -9.2801868915557861e-01</leafValues></_>
        <_>
          <internalNodes>
            0 -1 190 -1.1216456186957657e-04</internalNodes>
          <leafValues>
            -2.7420341968536377e-01 1.5441782772541046e-01</leafValues></_>
        <_>
          <internalNodes>
            0 -1 190 1.1285125219728798e-04</internalNodes>
          <leafValues>
            1.5659925341606140e-01 -2.9390406608581543e-01</leafValues></_>
        <_>
          <internalNodes>
            0 -1 136 1.5510466182604432e-03</internalNodes>
          <leafValues>
            -1.1783371865749359e-01 3.0972251296043396e-01</leafValues></_>
        <_>
          <internalNodes>
            0 -1 57 5.8520799502730370e-03</internalNodes>
          <leafValues>
            -1.1258097738027573e-01 3.3270755410194397e-01</leafValues></_>
        <_>
          <internalNodes>
            0 -1 105 -8.0701410770416260e-03</internalNodes>
          <leafValues>
            3.7534964084625244e-01 -1.1043606698513031e-01</leafValues></_>
        <_>
          <internalNodes>
            0 -1 1 -4.5170120894908905e-02</internalNodes>
          <leafValues>
            -3.2532429695129395e-01 1.0384088009595871e-01</leafValues></_>
        <_>
          <internalNodes>
            0 -1 156 -4.8088142648339272e-03</internalNodes>
          <leafValues>
            5.9098392724990845e-01 -7.7139116823673248e-02</leafValues></_>
        <_>
          <internalNodes>
            0 -1 192 -4.1559766978025436e-03</internalNodes>
          <leafValues>
            4.6250292658805847e-01 -7.0912063121795654e-02</leafValues></_>
        <_>
          <internalNodes>
            0 -1 109 1.8173448741436005e-02</internalNodes>
          <leafValues>
            -1.0735640674829483e-01 3.1759724020957947e-01</leafValues></_>
        <_>
          <internalNodes>
            0 -1 119 6.7729288712143898e-03</internalNodes>
          <leafValues>
            -1.0100261121988297e-01 3.3275985717773438e-01</leafValues></_>
        <_>
          <internalNodes>
            0 -1 52 1.9086334854364395e-02</internalNodes>
          <leafValues>
            6.7736417055130005e-02 -4.9011659622192383e-01</leafValues></_>
        <_>
          <internalNodes>
            0 -1 258 2.7585406787693501e-03</internalNodes>
          <leafValues>
            -8.9177556335926056e-02 3.8059324026107788e-01</leafValues></_>
        <_>
          <internalNodes>
            0 -1 226 2.5587956770323217e-04</internalNodes>
          <leafValues>
            -1.5418787300586700e-01 2.2950460016727448e-01</leafValues></_>
        <_>
          <internalNodes>
            0 -1 287 7.2891591116786003e-03</internalNodes>
          <leafValues>
            -1.4706628024578094e-01 2.3121035099029541e-01</leafValues></_>
        <_>
          <internalNodes>
            0 -1 115 -1.1472881305962801e-03</internalNodes>
          <leafValues>
            2.3257377743721008e-01 -1.4271567761898041e-01</leafValues></_>
        <_>
          <internalNodes>
            0 -1 185 -1.6543022356927395e-03</internalNodes>
          <leafValues>
            2.6609164476394653e-01 -1.1197236180305481e-01</leafValues></_>
        <_>
          <internalNodes>
            0 -1 110 -4.8067718744277954e-02</internalNodes>
          <leafValues>
            8.2293933629989624e-01 -3.4741327166557312e-02</leafValues></_>
        <_>
          <internalNodes>
            0 -1 93 -2.9680507257580757e-02</internalNodes>
          <leafValues>
            -9.1516679525375366e-01 4.0818773210048676e-02</leafValues></_>
        <_>
          <internalNodes>
            0 -1 9 4.9667786806821823e-03</internalNodes>
          <leafValues>
            -1.0633805394172668e-01 3.5139614343643188e-01</leafValues></_>
        <_>
          <internalNodes>
            0 -1 212 4.9530714750289917e-02</internalNodes>
          <leafValues>
            4.3642364442348480e-02 -7.6434230804443359e-01</leafValues></_>
        <_>
          <internalNodes>
            0 -1 103 -1.6906107775866985e-03</internalNodes>
          <leafValues>
            2.5068935751914978e-01 -1.2717023491859436e-01</leafValues></_>
        <_>
          <internalNodes>
            0 -1 56 1.7835725098848343e-02</internalNodes>
          <leafValues>
            4.5159764587879181e-02 -6.3853204250335693e-01</leafValues></_>
        <_>
          <internalNodes>
            0 -1 71 -2.2034466266632080e-01</internalNodes>
          <leafValues>
            6.4168947935104370e-01 -5.4296564310789108e-02</leafValues></_>
        <_>
          <internalNodes>
            0 -1 172 8.0475956201553345e-03</internalNodes>
          <leafValues>
            -7.7497906982898712e-02 3.9481711387634277e-01</leafValues></_>
        <_>
          <internalNodes>
            0 -1 218 4.2506754398345947e-02</internalNodes>
          <leafValues>
            -4.4946391135454178e-02 5.8321833610534668e-01</leafValues></_>
        <_>
          <internalNodes>
            0 -1 237 -3.0015885829925537e-02</internalNodes>
          <leafValues>
            3.2003760337829590e-01 -8.8939309120178223e-02</leafValues></_>
        <_>
          <internalNodes>
            0 -1 88 -3.4748038649559021e-01</internalNodes>
          <leafValues>
            -9.1742503643035889e-01 3.7349879741668701e-02</leafValues></_>
        <_>
          <internalNodes>
            0 -1 273 -9.6588600426912308e-03</internalNodes>
          <leafValues>
            3.1555005908012390e-01 -1.0651621222496033e-01</leafValues></_>
        <_>
          <internalNodes>
            0 -1 10 -2.6791371405124664e-02</internalNodes>
          <leafValues>
            1.5292833745479584e-01 -1.7818622291088104e-01</leafValues></_>
        <_>
          <internalNodes>
            0 -1 8 -1.3003047206439078e-04</internalNodes>
          <leafValues>
            -2.4348299205303192e-01 1.1228127032518387e-01</leafValues></_>
        <_>
          <internalNodes>
            0 -1 291 -2.9096873477101326e-03</internalNodes>
          <leafValues>
            -8.9085823297500610e-01 3.6534365266561508e-02</leafValues></_>
        <_>
          <internalNodes>
            0 -1 127 -3.1357526779174805e-02</internalNodes>
          <leafValues>
            -7.1501411497592926e-02 4.4396674633026123e-01</leafValues></_>
        <_>
          <internalNodes>
            0 -1 122 -1.2137752026319504e-02</internalNodes>
          <leafValues>
            4.9706451594829559e-02 -5.4518949985504150e-01</leafValues></_>
        <_>
          <internalNodes>
            0 -1 225 -1.5742422547191381e-03</internalNodes>
          <leafValues>
            2.6126277446746826e-01 -1.0608095675706863e-01</leafValues></_>
        <_>
          <internalNodes>
            0 -1 140 5.5606514215469360e-02</internalNodes>
          <leafValues>
            4.3290488421916962e-02 -6.5185487270355225e-01</leafValues></_>
        <_>
          <internalNodes>
            0 -1 262 -1.7451489344239235e-02</internalNodes>
          <leafValues>
            4.9942272901535034e-01 -6.1689708381891251e-02</leafValues></_>
        <_>
          <internalNodes>
            0 -1 59 1.6383979469537735e-02</internalNodes>
          <leafValues>
            -1.6439163684844971e-01 1.8702299892902374e-01</leafValues></_></weakClassifiers></_>
    <!-- stage 7 -->
    <_>
      <maxWeakCount>39</maxWeakCount>
      <stageThreshold>-1.6767686605453491e+00</stageThreshold>
      <weakClassifiers>
        <_>
          <internalNodes>
            0 -1 83 -6.9057857617735863e-03</internalNodes>
          <leafValues>
            -5.6884056329727173e-01 -8.6484277248382568e-01</leafValues></_>
        <_>
          <internalNodes>
            0 -1 19 -9.4032734632492065e-02</internalNodes>
          <leafValues>
            -2.1582297980785370e-01 -7.7995055913925171e-01</leafValues></_>
        <_>
          <internalNodes>
            0 -1 154 -1.0119530372321606e-02</internalNodes>
          <leafValues>
            1.6056392341852188e-02 -8.3448928594589233e-01</leafValues></_>
        <_>
          <internalNodes>
            0 -1 49 -2.2607870050705969e-04</internalNodes>
          <leafValues>
            -3.1754946708679199e-01 1.3466154038906097e-01</leafValues></_>
        <_>
          <internalNodes>
            0 -1 231 -3.2537872903048992e-03</internalNodes>
          <leafValues>
            3.3686122298240662e-01 -1.0330472886562347e-01</leafValues></_>
        <_>
          <internalNodes>
            0 -1 145 2.6376609457656741e-04</internalNodes>
          <leafValues>
            1.0239070653915405e-01 -3.4161448478698730e-01</leafValues></_>
        <_>
          <internalNodes>
            0 -1 186 3.4023933112621307e-03</internalNodes>
          <leafValues>
            -1.5770345926284790e-01 2.1830601990222931e-01</leafValues></_>
        <_>
          <internalNodes>
            0 -1 134 -1.0346495546400547e-03</internalNodes>
          <leafValues>
            2.5376787781715393e-01 -1.2440997362136841e-01</leafValues></_>
        <_>
          <internalNodes>
            0 -1 227 -1.0264175944030285e-02</internalNodes>
          <leafValues>
            -9.0489989519119263e-01 2.9751392081379890e-02</leafValues></_>
        <_>
          <internalNodes>
            0 -1 75 -3.0980599112808704e-03</internalNodes>
          <leafValues>
            1.5328155457973480e-01 -2.1107831597328186e-01</leafValues></_>
        <_>
          <internalNodes>
            0 -1 77 -2.1700985729694366e-02</internalNodes>
          <leafValues>
            -8.6890709400177002e-01 3.3869348466396332e-02</leafValues></_>
        <_>
          <internalNodes>
            0 -1 181 2.5287907919846475e-04</internalNodes>
          <leafValues>
            -1.5955072641372681e-01 1.7453573644161224e-01</leafValues></_>
        <_>
          <internalNodes>
            0 -1 55 -2.1682083606719971e-02</internalNodes>
          <leafValues>
            -6.4621686935424805e-01 3.8144633173942566e-02</leafValues></_>
        <_>
          <internalNodes>
            0 -1 68 -6.0305893421173096e-03</internalNodes>
          <leafValues>
            4.0627640485763550e-01 -7.7208779752254486e-02</leafValues></_>
        <_>
          <internalNodes>
            0 -1 254 -6.8613351322710514e-03</internalNodes>
          <leafValues>
            4.0567487478256226e-01 -7.1707792580127716e-02</leafValues></_>
        <_>
          <internalNodes>
            0 -1 90 -2.8076842427253723e-02</internalNodes>
          <leafValues>
            -4.9315225332975388e-02 5.4266536235809326e-01</leafValues></_>
        <_>
          <internalNodes>
            0 -1 123 -2.8892926871776581e-02</internalNodes>
          <leafValues>
            1.3618251681327820e-01 -2.4647983908653259e-01</leafValues></_>
        <_>
          <internalNodes>
            0 -1 189 4.0885999798774719e-02</internalNodes>
          <leafValues>
            5.5564641952514648e-02 -5.5704301595687866e-01</leafValues></_>
        <_>
          <internalNodes>
            0 -1 284 9.6584344282746315e-04</internalNodes>
          <leafValues>
            -8.9504532516002655e-02 3.2764345407485962e-01</leafValues></_>
        <_>
          <internalNodes>
            0 -1 187 -2.2351201623678207e-03</internalNodes>
          <leafValues>
            3.7307593971490860e-02 -7.9500657320022583e-01</leafValues></_>
        <_>
          <internalNodes>
            0 -1 34 -1.0612826008582488e-04</internalNodes>
          <leafValues>
            -2.3615969717502594e-01 1.1410538852214813e-01</leafValues></_>
        <_>
          <internalNodes>
            0 -1 43 1.8943715840578079e-02</internalNodes>
          <leafValues>
            -6.5232872962951660e-02 4.6020796895027161e-01</leafValues></_>
        <_>
          <internalNodes>
            0 -1 108 -7.6904989778995514e-02</internalNodes>
          <leafValues>
            -8.5530750453472137e-02 3.0049157142639160e-01</leafValues></_>
        <_>
          <internalNodes>
            0 -1 179 -3.3151730895042419e-02</internalNodes>
          <leafValues>
            2.5765055418014526e-01 -1.3133399188518524e-01</leafValues></_>
        <_>
          <internalNodes>
            0 -1 215 -1.7795474827289581e-01</internalNodes>
          <leafValues>
            4.8060271143913269e-01 -8.6191765964031219e-02</leafValues></_>
        <_>
          <internalNodes>
            0 -1 275 1.9354739924892783e-03</internalNodes>
          <leafValues>
            -8.0251999199390411e-02 3.4516537189483643e-01</leafValues></_>
        <_>
          <internalNodes>
            0 -1 152 -5.8652693405747414e-03</internalNodes>
          <leafValues>
            2.7495396137237549e-01 -1.0077521950006485e-01</leafValues></_>
        <_>
          <internalNodes>
            0 -1 277 2.5386437773704529e-02</internalNodes>
          <leafValues>
            -6.4666725695133209e-02 4.9046802520751953e-01</leafValues></_>
        <_>
          <internalNodes>
            0 -1 120 -2.2103093215264380e-04</internalNodes>
          <leafValues>
            -3.0094346404075623e-01 9.3499422073364258e-02</leafValues></_>
        <_>
          <internalNodes>
            0 -1 280 7.1331923827528954e-03</internalNodes>
          <leafValues>
            -1.2047744542360306e-01 2.4394559860229492e-01</leafValues></_>
        <_>
          <internalNodes>
            0 -1 183 2.0398679189383984e-03</internalNodes>
          <leafValues>
            -1.1903413385152817e-01 2.6214617490768433e-01</leafValues></_>
        <_>
          <internalNodes>
            0 -1 249 -8.9065194129943848e-02</internalNodes>
          <leafValues>
            7.1698254346847534e-01 -4.3435744941234589e-02</leafValues></_>
        <_>
          <internalNodes>
            0 -1 295 -9.0160798281431198e-03</internalNodes>
          <leafValues>
            -4.4984170794487000e-01 7.3215901851654053e-02</leafValues></_>
        <_>
          <internalNodes>
            0 -1 259 2.2317100316286087e-02</internalNodes>
          <leafValues>
            -1.1085789650678635e-01 2.5542318820953369e-01</leafValues></_>
        <_>
          <internalNodes>
            0 -1 120 3.0020478880032897e-04</internalNodes>
          <leafValues>
            8.6686909198760986e-02 -3.2931339740753174e-01</leafValues></_>
        <_>
          <internalNodes>
            0 -1 161 -1.6272272914648056e-02</internalNodes>
          <leafValues>
            2.6994999498128891e-02 -8.8359940052032471e-01</leafValues></_>
        <_>
          <internalNodes>
            0 -1 193 -2.1945736370980740e-03</internalNodes>
          <leafValues>
            3.9639049768447876e-01 -6.7352883517742157e-02</leafValues></_>
        <_>
          <internalNodes>
            0 -1 64 3.8644704967737198e-02</internalNodes>
          <leafValues>
            5.2108950912952423e-02 -5.2515733242034912e-01</leafValues></_>
        <_>
          <internalNodes>
            0 -1 282 -1.7219283618032932e-03</internalNodes>
          <leafValues>
            2.5841492414474487e-01 -1.0112255811691284e-01</leafValues></_></weakClassifiers></_>
    <!-- stage 8 -->
    <_>
      <maxWeakCount>44</maxWeakCount>
      <stageThreshold>-1.6269339323043823e+00</stageThreshold>
      <weakClassifiers>
        <_>
          <internalNodes>
            0 -1 175 -4.1694838553667068e-02</internalNodes>
          <leafValues>
            -2.4675324559211731e-01 -8.4329050779342651e-01</leafValues></_>
        <_>
          <internalNodes>
            0 -1 153 -1.0157666355371475e-01</internalNodes>
          <leafValues>
            -1.7025734484195709e-01 -5.5139595270156860e-01</leafValues></_>
        <_>
          <internalNodes>
            0 -1 60 -3.1927295029163361e-02</internalNodes>
          <leafValues>
            -8.9008551836013794e-01 3.0988086014986038e-02</leafValues></_>
        <_>
          <internalNodes>
            0 -1 12 -3.2817553728818893e-03</internalNodes>
          <leafValues>
            3.4568658471107483e-01 -9.4663783907890320e-02</leafValues></_>
        <_>
          <internalNodes>
            0 -1 87 -1.9530387362465262e-03</internalNodes>
          <leafValues>
            2.8228965401649475e-01 -1.2067028135061264e-01</leafValues></_>
        <_>
          <internalNodes>
            0 -1 104 5.7466709986329079e-03</internalNodes>
          <leafValues>
            -9.9940985441207886e-02 2.8920397162437439e-01</leafValues></_>
        <_>
          <internalNodes>
            0 -1 30 8.8510625064373016e-03</internalNodes>
          <leafValues>
            -1.0118739306926727e-01 2.9514724016189575e-01</leafValues></_>
        <_>
          <internalNodes>
            0 -1 235 -1.2245355173945427e-04</internalNodes>
          <leafValues>
            -2.6172086596488953e-01 1.1414327472448349e-01</leafValues></_>
        <_>
          <internalNodes>
            0 -1 235 4.0622049709782004e-04</internalNodes>
          <leafValues>
            1.0139731317758560e-01 -3.5179498791694641e-01</leafValues></_>
        <_>
          <internalNodes>
            0 -1 16 -3.0984845757484436e-01</internalNodes>
          <leafValues>
            -6.4824175834655762e-01 2.8462214395403862e-02</leafValues></_>
        <_>
          <internalNodes>
            0 -1 28 4.0653035975992680e-03</internalNodes>
          <leafValues>
            3.3957641571760178e-02 -7.2004044055938721e-01</leafValues></_>
        <_>
          <internalNodes>
            0 -1 95 4.1650625644251704e-04</internalNodes>
          <leafValues>
            -1.1135610938072205e-01 2.2505310177803040e-01</leafValues></_>
        <_>
          <internalNodes>
            0 -1 206 1.3105494435876608e-03</internalNodes>
          <leafValues>
            -1.1726205796003342e-01 2.7427050471305847e-01</leafValues></_>
        <_>
          <internalNodes>
            0 -1 50 5.3759872913360596e-02</internalNodes>
          <leafValues>
            6.9288872182369232e-02 -6.1694252490997314e-01</leafValues></_>
        <_>
          <internalNodes>
            0 -1 247 -7.9744540154933929e-02</internalNodes>
          <leafValues>
            3.2135522365570068e-01 -8.5548378527164459e-02</leafValues></_>
        <_>
          <internalNodes>
            0 -1 269 1.0489174164831638e-03</internalNodes>
          <leafValues>
            -1.4024485647678375e-01 2.3643752932548523e-01</leafValues></_>
        <_>
          <internalNodes>
            0 -1 294 -9.7472034394741058e-03</internalNodes>
          <leafValues>
            -5.7914024591445923e-01 4.8784460872411728e-02</leafValues></_>
        <_>
          <internalNodes>
            0 -1 292 -1.0568542405962944e-02</internalNodes>
          <leafValues>
            1.1835013329982758e-01 -2.2450082004070282e-01</leafValues></_>
        <_>
          <internalNodes>
            0 -1 102 -1.0647065006196499e-02</internalNodes>
          <leafValues>
            -8.6114990711212158e-01 2.7597319334745407e-02</leafValues></_>
        <_>
          <internalNodes>
            0 -1 230 -1.5338710509240627e-03</internalNodes>
          <leafValues>
            1.7163585126399994e-01 -1.4442247152328491e-01</leafValues></_>
        <_>
          <internalNodes>
            0 -1 191 -8.5339425131678581e-03</internalNodes>
          <leafValues>
            4.1534271836280823e-01 -6.6383212804794312e-02</leafValues></_>
        <_>
          <internalNodes>
            0 -1 288 -7.8058284707367420e-03</internalNodes>
          <leafValues>
            -3.1889832019805908e-01 9.8197929561138153e-02</leafValues></_>
        <_>
          <internalNodes>
            0 -1 145 -1.1309899855405092e-04</internalNodes>
          <leafValues>
            -2.3186576366424561e-01 1.0126675665378571e-01</leafValues></_>
        <_>
          <internalNodes>
            0 -1 7 -8.4614224731922150e-02</internalNodes>
          <leafValues>
            -9.3672847747802734e-01 2.5406572967767715e-02</leafValues></_>
        <_>
          <internalNodes>
            0 -1 201 -7.5657898560166359e-04</internalNodes>
          <leafValues>
            1.4592839777469635e-01 -1.7282857000827789e-01</leafValues></_>
        <_>
          <internalNodes>
            0 -1 53 4.9537806771695614e-03</internalNodes>
          <leafValues>
            -6.4280129969120026e-02 3.3030813932418823e-01</leafValues></_>
        <_>
          <internalNodes>
            0 -1 25 1.1682074982672930e-03</internalNodes>
          <leafValues>
            7.9761773347854614e-02 -3.3371976017951965e-01</leafValues></_>
        <_>
          <internalNodes>
            0 -1 211 -1.9892241107299924e-04</internalNodes>
          <leafValues>
            -2.5855070352554321e-01 9.9532291293144226e-02</leafValues></_>
        <_>
          <internalNodes>
            0 -1 18 -2.4485540390014648e-01</internalNodes>
          <leafValues>
            -8.3945304155349731e-01 2.3709379136562347e-02</leafValues></_>
        <_>
          <internalNodes>
            0 -1 112 -1.0841473937034607e-02</internalNodes>
          <leafValues>
            2.7095580101013184e-01 -1.0053741931915283e-01</leafValues></_>
        <_>
          <internalNodes>
            0 -1 111 2.2879336029291153e-03</internalNodes>
          <leafValues>
            -1.7190195620059967e-01 1.7958559095859528e-01</leafValues></_>
        <_>
          <internalNodes>
            0 -1 22 2.7295514941215515e-02</internalNodes>
          <leafValues>
            5.6191086769104004e-02 -5.0767552852630615e-01</leafValues></_>
        <_>
          <internalNodes>
            0 -1 155 -1.9613585900515318e-03</internalNodes>
          <leafValues>
            2.1877074614167213e-02 -9.2191267013549805e-01</leafValues></_>
        <_>
          <internalNodes>
            0 -1 293 -1.7478414811193943e-03</internalNodes>
          <leafValues>
            -5.8852785825729370e-01 3.3419165760278702e-02</leafValues></_>
        <_>
          <internalNodes>
            0 -1 91 1.9472309947013855e-01</internalNodes>
          <leafValues>
            3.4328527748584747e-02 -6.7182427644729614e-01</leafValues></_>
        <_>
          <internalNodes>
            0 -1 6 -5.4312460124492645e-03</internalNodes>
          <leafValues>
            2.3462823033332825e-01 -1.1437591910362244e-01</leafValues></_>
        <_>
          <internalNodes>
            0 -1 165 -4.5336582115851343e-04</internalNodes>
          <leafValues>
            2.2456616163253784e-01 -1.0340951383113861e-01</leafValues></_>
        <_>
          <internalNodes>
            0 -1 229 -4.1958978399634361e-03</internalNodes>
          <leafValues>
            -7.8104835748672485e-01 2.8558688238263130e-02</leafValues></_>
        <_>
          <internalNodes>
            0 -1 33 1.1322458158247173e-04</internalNodes>
          <leafValues>
            9.8759032785892487e-02 -2.2639945149421692e-01</leafValues></_>
        <_>
          <internalNodes>
            0 -1 97 -1.0275739431381226e-01</internalNodes>
          <leafValues>
            2.4544771015644073e-01 -1.0320016741752625e-01</leafValues></_>
        <_>
          <internalNodes>
            0 -1 196 -3.5721287131309509e-02</internalNodes>
          <leafValues>
            -8.3783024549484253e-01 3.2477147877216339e-02</leafValues></_>
        <_>
          <internalNodes>
            0 -1 29 -3.1539504416286945e-03</internalNodes>
          <leafValues>
            -2.7991551160812378e-01 8.0312907695770264e-02</leafValues></_>
        <_>
          <internalNodes>
            0 -1 114 -5.4124172311276197e-04</internalNodes>
          <leafValues>
            2.3333179950714111e-01 -9.8171293735504150e-02</leafValues></_>
        <_>
          <internalNodes>
            0 -1 278 2.2788189351558685e-02</internalNodes>
          <leafValues>
            -4.5464105904102325e-02 5.0334000587463379e-01</leafValues></_></weakClassifiers></_>
    <!-- stage 9 -->
    <_>
      <maxWeakCount>42</maxWeakCount>
      <stageThreshold>-1.5887873172760010e+00</stageThreshold>
      <weakClassifiers>
        <_>
          <internalNodes>
            0 -1 17 -2.7040937542915344e-01</internalNodes>
          <leafValues>
            -6.5819859504699707e-01 -8.6823737621307373e-01</leafValues></_>
        <_>
          <internalNodes>
            0 -1 271 -8.2255620509386063e-03</internalNodes>
          <leafValues>
            -6.5557414293289185e-01 -2.4676831066608429e-01</leafValues></_>
        <_>
          <internalNodes>
            0 -1 198 -2.1549300290644169e-03</internalNodes>
          <leafValues>
            1.7391677945852280e-02 -8.4690910577774048e-01</leafValues></_>
        <_>
          <internalNodes>
            0 -1 242 -4.4223822653293610e-02</internalNodes>
          <leafValues>
            6.5464451909065247e-02 -6.4130651950836182e-01</leafValues></_>
        <_>
          <internalNodes>
            0 -1 119 -1.1341461911797523e-02</internalNodes>
          <leafValues>
            4.2060044407844543e-01 -6.8731121718883514e-02</leafValues></_>
        <_>
          <internalNodes>
            0 -1 158 -1.5080925077199936e-03</internalNodes>
          <leafValues>
            3.1767430901527405e-01 -8.5726663470268250e-02</leafValues></_>
        <_>
          <internalNodes>
            0 -1 264 -6.5568066202104092e-03</internalNodes>
          <leafValues>
            -5.7786852121353149e-02 4.8165369033813477e-01</leafValues></_>
        <_>
          <internalNodes>
            0 -1 36 -6.0967821627855301e-03</internalNodes>
          <leafValues>
            1.1797975003719330e-01 -2.1183456480503082e-01</leafValues></_>
        <_>
          <internalNodes>
            0 -1 128 2.1305775269865990e-02</internalNodes>
          <leafValues>
            -7.6232865452766418e-02 3.6461508274078369e-01</leafValues></_>
        <_>
          <internalNodes>
            0 -1 92 -1.9031888805329800e-03</internalNodes>
          <leafValues>
            2.1819522976875305e-01 -1.1941574513912201e-01</leafValues></_>
        <_>
          <internalNodes>
            0 -1 47 1.5170522965490818e-03</internalNodes>
          <leafValues>
            -1.5547037124633789e-01 1.6460330784320831e-01</leafValues></_>
        <_>
          <internalNodes>
            0 -1 210 2.0996257662773132e-03</internalNodes>
          <leafValues>
            4.8537928611040115e-02 -5.2964448928833008e-01</leafValues></_>
        <_>
          <internalNodes>
            0 -1 194 1.5211100690066814e-03</internalNodes>
          <leafValues>
            -1.4015541970729828e-01 1.8938358128070831e-01</leafValues></_>
        <_>
          <internalNodes>
            0 -1 197 -9.4600382726639509e-04</internalNodes>
          <leafValues>
            2.8663668036460876e-01 -1.0251106321811676e-01</leafValues></_>
        <_>
          <internalNodes>
            0 -1 268 -6.6625531762838364e-03</internalNodes>
          <leafValues>
            2.9862603545188904e-01 -9.1041237115859985e-02</leafValues></_>
        <_>
          <internalNodes>
            0 -1 63 6.3093197531998158e-03</internalNodes>
          <leafValues>
            -9.0809516608715057e-02 2.9265236854553223e-01</leafValues></_>
        <_>
          <internalNodes>
            0 -1 252 1.3478384353220463e-03</internalNodes>
          <leafValues>
            -1.1150746047496796e-01 2.1639078855514526e-01</leafValues></_>
        <_>
          <internalNodes>
            0 -1 117 -6.4061029115691781e-04</internalNodes>
          <leafValues>
            -4.6054807305335999e-01 6.0706704854965210e-02</leafValues></_>
        <_>
          <internalNodes>
            0 -1 290 -1.1910306056961417e-04</internalNodes>
          <leafValues>
            -2.2326366603374481e-01 1.1068382859230042e-01</leafValues></_>
        <_>
          <internalNodes>
            0 -1 20 -1.1049367458326742e-04</internalNodes>
          <leafValues>
            -2.3257692158222198e-01 1.0065034776926041e-01</leafValues></_>
        <_>
          <internalNodes>
            0 -1 265 -1.1161096626892686e-03</internalNodes>
          <leafValues>
            2.2886581718921661e-01 -1.0349004715681076e-01</leafValues></_>
        <_>
          <internalNodes>
            0 -1 23 -8.5007712244987488e-02</internalNodes>
          <leafValues>
            4.0683946013450623e-01 -6.4022183418273926e-02</leafValues></_>
        <_>
          <internalNodes>
            0 -1 261 5.0181377446278930e-04</internalNodes>
          <leafValues>
            -1.3862682878971100e-01 2.1153514087200165e-01</leafValues></_>
        <_>
          <internalNodes>
            0 -1 70 -5.3219191730022430e-02</internalNodes>
          <leafValues>
            3.1573703885078430e-01 -9.1510005295276642e-02</leafValues></_>
        <_>
          <internalNodes>
            0 -1 58 -1.5302221290767193e-02</internalNodes>
          <leafValues>
            -5.5046450346708298e-02 4.8796200752258301e-01</leafValues></_>
        <_>
          <internalNodes>
            0 -1 74 -3.5609891638159752e-03</internalNodes>
          <leafValues>
            -3.5294029116630554e-01 8.0379389226436615e-02</leafValues></_>
        <_>
          <internalNodes>
            0 -1 166 -2.3396299220621586e-03</internalNodes>
          <leafValues>
            2.9800511896610260e-02 -7.1762651205062866e-01</leafValues></_>
        <_>
          <internalNodes>
            0 -1 13 4.0735006332397461e-02</internalNodes>
          <leafValues>
            4.1808124631643295e-02 -5.6039756536483765e-01</leafValues></_>
        <_>
          <internalNodes>
            0 -1 118 -2.0036974456161261e-03</internalNodes>
          <leafValues>
            1.9416004419326782e-01 -1.3805282115936279e-01</leafValues></_>
        <_>
          <internalNodes>
            0 -1 138 2.8126435354351997e-03</internalNodes>
          <leafValues>
            -1.1240588128566742e-01 2.1294769644737244e-01</leafValues></_>
        <_>
          <internalNodes>
            0 -1 142 7.2361645288765430e-04</internalNodes>
          <leafValues>
            -9.8266713321208954e-02 2.2768673300743103e-01</leafValues></_>
        <_>
          <internalNodes>
            0 -1 116 9.0389568358659744e-03</internalNodes>
          <leafValues>
            5.2772704511880875e-02 -6.4398914575576782e-01</leafValues></_>
        <_>
          <internalNodes>
            0 -1 124 -7.7994659543037415e-02</internalNodes>
          <leafValues>
            4.0960392355918884e-01 -6.1421241611242294e-02</leafValues></_>
        <_>
          <internalNodes>
            0 -1 283 -3.6990074440836906e-03</internalNodes>
          <leafValues>
            3.3630171418190002e-01 -7.5197078287601471e-02</leafValues></_>
        <_>
          <internalNodes>
            0 -1 214 1.4219133183360100e-02</internalNodes>
          <leafValues>
            -5.4573439061641693e-02 4.5400521159172058e-01</leafValues></_>
        <_>
          <internalNodes>
            0 -1 263 3.2479828223586082e-03</internalNodes>
          <leafValues>
            -1.2605126202106476e-01 2.0406672358512878e-01</leafValues></_>
        <_>
          <internalNodes>
            0 -1 141 -4.6499716117978096e-03</internalNodes>
          <leafValues>
            -3.0484318733215332e-01 7.8945480287075043e-02</leafValues></_>
        <_>
          <internalNodes>
            0 -1 82 -4.1254318784922361e-04</internalNodes>
          <leafValues>
            2.0967681705951691e-01 -1.2817576527595520e-01</leafValues></_>
        <_>
          <internalNodes>
            0 -1 38 8.1841438077390194e-04</internalNodes>
          <leafValues>
            5.7815816253423691e-02 -4.5305660367012024e-01</leafValues></_>
        <_>
          <internalNodes>
            0 -1 5 -1.1327647371217608e-04</internalNodes>
          <leafValues>
            -2.1339575946331024e-01 1.1895816028118134e-01</leafValues></_>
        <_>
          <internalNodes>
            0 -1 73 4.5963089913129807e-02</internalNodes>
          <leafValues>
            -3.6046285182237625e-02 7.1692103147506714e-01</leafValues></_>
        <_>
          <internalNodes>
            0 -1 39 5.2770089358091354e-02</internalNodes>
          <leafValues>
            3.0414080247282982e-02 -1.</leafValues></_></weakClassifiers></_></stages>
  <features>
    <_>
      <rects>
        <_>
          0 0 12 7 -1.</_>
        <_>
          6 0 6 7 2.</_></rects>
      <tilted>0</tilted></_>
    <_>
      <rects>
        <_>
          0 0 6 24 -1.</_>
        <_>
          0 12 6 12 2.</_></rects>
      <tilted>0</tilted></_>
    <_>
      <rects>
        <_>
          0 0 24 19 -1.</_>
        <_>
          8 0 8 19 2.</_></rects>
      <tilted>0</tilted></_>
    <_>
      <rects>
        <_>
          0 0 15 14 -1.</_>
        <_>
          0 7 15 7 2.</_></rects>
      <tilted>0</tilted></_>
    <_>
      <rects>
        <_>
          0 1 3 1 -1.</_>
        <_>
          1 1 1 1 2.</_></rects>
      <tilted>0</tilted></_>
    <_>
      <rects>
        <_>
          0 1 2 2 -1.</_>
        <_>
          0 2 2 1 2.</_></rects>
      <tilted>0</tilted></_>
    <_>
      <rects>
        <_>
          0 1 18 2 -1.</_>
        <_>
          0 2 18 1 2.</_></rects>
      <tilted>0</tilted></_>
    <_>
      <rects>
        <_>
          0 1 20 4 -1.</_>
        <_>
          0 3 20 2 2.</_></rects>
      <tilted>0</tilted></_>
    <_>
      <rects>
        <_>
          0 2 1 2 -1.</_>
        <_>
          0 3 1 1 2.</_></rects>
      <tilted>0</tilted></_>
    <_>
      <rects>
        <_>
          0 2 10 2 -1.</_>
        <_>
          0 2 5 1 2.</_>
        <_>
          5 3 5 1 2.</_></rects>
      <tilted>0</tilted></_>
    <_>
      <rects>
        <_>
          0 2 10 22 -1.</_>
        <_>
          0 2 5 11 2.</_>
        <_>
          5 13 5 11 2.</_></rects>
      <tilted>0</tilted></_>
    <_>
      <rects>
        <_>
          0 2 12 2 -1.</_>
        <_>
          0 2 6 1 2.</_>
        <_>
          6 3 6 1 2.</_></rects>
      <tilted>0</tilted></_>
    <_>
      <rects>
        <_>
          0 3 8 2 -1.</_>
        <_>
          0 3 4 1 2.</_>
        <_>
          4 4 4 1 2.</_></rects>
      <tilted>0</tilted></_>
    <_>
      <rects>
        <_>
          0 6 20 2 -1.</_>
        <_>
          10 6 10 2 2.</_></rects>
      <tilted>0</tilted></_>
    <_>
      <rects>
        <_>
          0 7 1 16 -1.</_>
        <_>
          0 15 1 8 2.</_></rects>
      <tilted>0</tilted></_>
    <_>
      <rects>
        <_>
          0 8 16 16 -1.</_>
        <_>
          0 8 8 8 2.</_>
        <_>
          8 16 8 8 2.</_></rects>
      <tilted>0</tilted></_>
    <_>
      <rects>
        <_>
          0 8 20 16 -1.</_>
        <_>
          0 16 20 8 2.</_></rects>
      <tilted>0</tilted></_>
    <_>
      <rects>
        <_>
          0 10 15 6 -1.</_>
        <_>
          5 10 5 6 2.</_></rects>
      <tilted>0</tilted></_>
    <_>
      <rects>
        <_>
          0 10 24 10 -1.</_>
        <_>
          12 10 12 10 2.</_></rects>
      <tilted>0</tilted></_>
    <_>
      <rects>
        <_>
          0 11 18 3 -1.</_>
        <_>
          0 12 18 1 2.</_></rects>
      <tilted>0</tilted></_>
    <_>
      <rects>
        <_>
          0 15 2 1 -1.</_>
        <_>
          1 15 1 1 2.</_></rects>
      <tilted>0</tilted></_>
    <_>
      <rects>
        <_>
          0 15 2 3 -1.</_>
        <_>
          1 15 1 3 2.</_></rects>
      <tilted>0</tilted></_>
    <_>
      <rects>
        <_>
          0 15 9 6 -1.</_>
        <_>
          0 18 9 3 2.</_></rects>
      <tilted>0</tilted></_>
    <_>
      <rects>
        <_>
          0 15 19 6 -1.</_>
        <_>
          0 18 19 3 2.</_></rects>
      <tilted>0</tilted></_>
    <_>
      <rects>
        <_>
          0 16 18 7 -1.</_>
        <_>
          9 16 9 7 2.</_></rects>
      <tilted>0</tilted></_>
    <_>
      <rects>
        <_>
          0 21 6 1 -1.</_>
        <_>
          3 21 3 1 2.</_></rects>
      <tilted>0</tilted></_>
    <_>
      <rects>
        <_>
          1 1 16 3 -1.</_>
        <_>
          9 1 8 3 2.</_></rects>
      <tilted>0</tilted></_>
    <_>
      <rects>
        <_>
          1 2 21 3 -1.</_>
        <_>
          8 2 7 3 2.</_></rects>
      <tilted>0</tilted></_>
    <_>
      <rects>
        <_>
          1 3 2 2 -1.</_>
        <_>
          1 4 2 1 2.</_></rects>
      <tilted>0</tilted></_>
    <_>
      <rects>
        <_>
          1 4 2 20 -1.</_>
        <_>
          2 4 1 20 2.</_></rects>
      <tilted>0</tilted></_>
    <_>
      <rects>
        <_>
          1 4 17 2 -1.</_>
        <_>
          1 5 17 1 2.</_></rects>
      <tilted>0</tilted></_>
    <_>
      <rects>
        <_>
          1 4 18 2 -1.</_>
        <_>
          1 5 18 1 2.</_></rects>
      <tilted>0</tilted></_>
    <_>
      <rects>
        <_>
          1 8 22 16 -1.</_>
        <_>
          12 8 11 16 2.</_></rects>
      <tilted>0</tilted></_>
    <_>
      <rects>
        <_>
          1 13 2 1 -1.</_>
        <_>
          2 13 1 1 2.</_></rects>
      <tilted>0</tilted></_>
    <_>
      <rects>
        <_>
          1 15 2 1 -1.</_>
        <_>
          2 15 1 1 2.</_></rects>
      <tilted>0</tilted></_>
    <_>
      <rects>
        <_>
          1 17 3 5 -1.</_>
        <_>
          2 17 1 5 2.</_></rects>
      <tilted>0</tilted></_>
    <_>
      <rects>
        <_>
          1 17 22 7 -1.</_>
        <_>
          12 17 11 7 2.</_></rects>
      <tilted>0</tilted></_>
    <_>
      <rects>
        <_>
          1 19 14 3 -1.</_>
        <_>
          8 19 7 3 2.</_></rects>
      <tilted>0</tilted></_>
    <_>
      <rects>
        <_>
          1 21 2 2 -1.</_>
        <_>
          1 21 1 1 2.</_>
        <_>
          2 22 1 1 2.</_></rects>
      <tilted>0</tilted></_>
    <_>
      <rects>
        <_>
          2 0 11 4 -1.</_>
        <_>
          2 2 11 2 2.</_></rects>
      <tilted>0</tilted></_>
    <_>
      <rects>
        <_>
          2 1 8 5 -1.</_>
        <_>
          6 1 4 5 2.</_></rects>
      <tilted>0</tilted></_>
    <_>
      <rects>
        <_>
          2 1 22 18 -1.</_>
        <_>
          2 7 22 6 2.</_></rects>
      <tilted>0</tilted></_>
    <_>
      <rects>
        <_>
          2 3 16 2 -1.</_>
        <_>
          2 4 16 1 2.</_></rects>
      <tilted>0</tilted></_>
    <_>
      <rects>
        <_>
          2 4 17 2 -1.</_>
        <_>
          2 5 17 1 2.</_></rects>
      <tilted>0</tilted></_>
    <_>
      <rects>
        <_>
          2 5 21 12 -1.</_>
        <_>
          2 9 21 4 2.</_></rects>
      <tilted>0</tilted></_>
    <_>
      <rects>
        <_>
          2 8 3 3 -1.</_>
        <_>
          3 8 1 3 2.</_></rects>
      <tilted>0</tilted></_>
    <_>
      <rects>
        <_>
          2 13 2 1 -1.</_>
        <_>
          3 13 1 1 2.</_></rects>
      <tilted>0</tilted></_>
    <_>
      <rects>
        <_>
          2 18 6 6 -1.</_>
        <_>
          2 18 3 3 2.</_>
        <_>
          5 21 3 3 2.</_></rects>
      <tilted>0</tilted></_>
    <_>
      <rects>
        <_>
          2 22 3 2 -1.</_>
        <_>
          3 22 1 2 2.</_></rects>
      <tilted>0</tilted></_>
    <_>
      <rects>
        <_>
          2 23 2 1 -1.</_>
        <_>
          3 23 1 1 2.</_></rects>
      <tilted>0</tilted></_>
    <_>
      <rects>
        <_>
          3 0 12 6 -1.</_>
        <_>
          3 3 12 3 2.</_></rects>
      <tilted>0</tilted></_>
    <_>
      <rects>
        <_>
          3 0 12 12 -1.</_>
        <_>
          3 4 12 4 2.</_></rects>
      <tilted>0</tilted></_>
    <_>
      <rects>
        <_>
          3 1 8 5 -1.</_>
        <_>
          7 1 4 5 2.</_></rects>
      <tilted>0</tilted></_>
    <_>
      <rects>
        <_>
          3 1 7 2 -1.</_>
        <_>
          3 2 7 1 2.</_></rects>
      <tilted>0</tilted></_>
    <_>
      <rects>
        <_>
          3 1 15 2 -1.</_>
        <_>
          3 2 15 1 2.</_></rects>
      <tilted>0</tilted></_>
    <_>
      <rects>
        <_>
          3 2 4 6 -1.</_>
        <_>
          3 5 4 3 2.</_></rects>
      <tilted>0</tilted></_>
    <_>
      <rects>
        <_>
          3 3 3 8 -1.</_>
        <_>
          3 7 3 4 2.</_></rects>
      <tilted>0</tilted></_>
    <_>
      <rects>
        <_>
          3 3 9 2 -1.</_>
        <_>
          3 4 9 1 2.</_></rects>
      <tilted>0</tilted></_>
    <_>
      <rects>
        <_>
          3 5 2 6 -1.</_>
        <_>
          3 7 2 2 2.</_></rects>
      <tilted>0</tilted></_>
    <_>
      <rects>
        <_>
          3 18 13 6 -1.</_>
        <_>
          3 21 13 3 2.</_></rects>
      <tilted>0</tilted></_>
    <_>
      <rects>
        <_>
          3 19 8 3 -1.</_>
        <_>
          7 19 4 3 2.</_></rects>
      <tilted>0</tilted></_>
    <_>
      <rects>
        <_>
          3 21 18 2 -1.</_>
        <_>
          3 22 18 1 2.</_></rects>
      <tilted>0</tilted></_>
    <_>
      <rects>
        <_>
          4 1 10 8 -1.</_>
        <_>
          4 5 10 4 2.</_></rects>
      <tilted>0</tilted></_>
    <_>
      <rects>
        <_>
          4 2 20 2 -1.</_>
        <_>
          4 2 10 1 2.</_>
        <_>
          14 3 10 1 2.</_></rects>
      <tilted>0</tilted></_>
    <_>
      <rects>
        <_>
          4 2 10 6 -1.</_>
        <_>
          4 5 10 3 2.</_></rects>
      <tilted>0</tilted></_>
    <_>
      <rects>
        <_>
          4 2 12 2 -1.</_>
        <_>
          4 3 12 1 2.</_></rects>
      <tilted>0</tilted></_>
    <_>
      <rects>
        <_>
          4 3 8 2 -1.</_>
        <_>
          4 4 8 1 2.</_></rects>
      <tilted>0</tilted></_>
    <_>
      <rects>
        <_>
          4 3 16 2 -1.</_>
        <_>
          4 4 16 1 2.</_></rects>
      <tilted>0</tilted></_>
    <_>
      <rects>
        <_>
          4 4 5 2 -1.</_>
        <_>
          4 5 5 1 2.</_></rects>
      <tilted>0</tilted></_>
    <_>
      <rects>
        <_>
          4 4 15 2 -1.</_>
        <_>
          4 5 15 1 2.</_></rects>
      <tilted>0</tilted></_>
    <_>
      <rects>
        <_>
          4 5 7 12 -1.</_>
        <_>
          4 11 7 6 2.</_></rects>
      <tilted>0</tilted></_>
    <_>
      <rects>
        <_>
          4 5 19 12 -1.</_>
        <_>
          4 11 19 6 2.</_></rects>
      <tilted>0</tilted></_>
    <_>
      <rects>
        <_>
          4 8 10 16 -1.</_>
        <_>
          4 16 10 8 2.</_></rects>
      <tilted>0</tilted></_>
    <_>
      <rects>
        <_>
          4 12 10 6 -1.</_>
        <_>
          4 12 5 3 2.</_>
        <_>
          9 15 5 3 2.</_></rects>
      <tilted>0</tilted></_>
    <_>
      <rects>
        <_>
          4 16 1 8 -1.</_>
        <_>
          4 20 1 4 2.</_></rects>
      <tilted>0</tilted></_>
    <_>
      <rects>
        <_>
          4 19 6 5 -1.</_>
        <_>
          7 19 3 5 2.</_></rects>
      <tilted>0</tilted></_>
    <_>
      <rects>
        <_>
          4 20 4 3 -1.</_>
        <_>
          4 21 4 1 2.</_></rects>
      <tilted>0</tilted></_>
    <_>
      <rects>
        <_>
          4 23 6 1 -1.</_>
        <_>
          6 23 2 1 2.</_></rects>
      <tilted>0</tilted></_>
    <_>
      <rects>
        <_>
          5 0 19 8 -1.</_>
        <_>
          5 4 19 4 2.</_></rects>
      <tilted>0</tilted></_>
    <_>
      <rects>
        <_>
          5 0 19 24 -1.</_>
        <_>
          5 12 19 12 2.</_></rects>
      <tilted>0</tilted></_>
    <_>
      <rects>
        <_>
          5 2 14 1 -1.</_>
        <_>
          12 2 7 1 2.</_></rects>
      <tilted>0</tilted></_>
    <_>
      <rects>
        <_>
          5 2 8 2 -1.</_>
        <_>
          5 3 8 1 2.</_></rects>
      <tilted>0</tilted></_>
    <_>
      <rects>
        <_>
          5 3 1 2 -1.</_>
        <_>
          5 4 1 1 2.</_></rects>
      <tilted>0</tilted></_>
    <_>
      <rects>
        <_>
          5 3 5 2 -1.</_>
        <_>
          5 4 5 1 2.</_></rects>
      <tilted>0</tilted></_>
    <_>
      <rects>
        <_>
          5 3 15 2 -1.</_>
        <_>
          5 4 15 1 2.</_></rects>
      <tilted>0</tilted></_>
    <_>
      <rects>
        <_>
          5 10 13 3 -1.</_>
        <_>
          5 11 13 1 2.</_></rects>
      <tilted>0</tilted></_>
    <_>
      <rects>
        <_>
          5 15 11 2 -1.</_>
        <_>
          5 16 11 1 2.</_></rects>
      <tilted>0</tilted></_>
    <_>
      <rects>
        <_>
          5 19 4 1 -1.</_>
        <_>
          7 19 2 1 2.</_></rects>
      <tilted>0</tilted></_>
    <_>
      <rects>
        <_>
          6 0 18 24 -1.</_>
        <_>
          15 0 9 24 2.</_></rects>
      <tilted>0</tilted></_>
    <_>
      <rects>
        <_>
          6 1 1 6 -1.</_>
        <_>
          6 4 1 3 2.</_></rects>
      <tilted>0</tilted></_>
    <_>
      <rects>
        <_>
          6 1 8 3 -1.</_>
        <_>
          6 2 8 1 2.</_></rects>
      <tilted>0</tilted></_>
    <_>
      <rects>
        <_>
          6 1 13 14 -1.</_>
        <_>
          6 8 13 7 2.</_></rects>
      <tilted>0</tilted></_>
    <_>
      <rects>
        <_>
          6 2 4 12 -1.</_>
        <_>
          6 2 2 6 2.</_>
        <_>
          8 8 2 6 2.</_></rects>
      <tilted>0</tilted></_>
    <_>
      <rects>
        <_>
          6 2 5 4 -1.</_>
        <_>
          6 4 5 2 2.</_></rects>
      <tilted>0</tilted></_>
    <_>
      <rects>
        <_>
          6 2 7 2 -1.</_>
        <_>
          6 3 7 1 2.</_></rects>
      <tilted>0</tilted></_>
    <_>
      <rects>
        <_>
          6 3 1 2 -1.</_>
        <_>
          6 4 1 1 2.</_></rects>
      <tilted>0</tilted></_>
    <_>
      <rects>
        <_>
          6 3 4 2 -1.</_>
        <_>
          6 4 4 1 2.</_></rects>
      <tilted>0</tilted></_>
    <_>
      <rects>
        <_>
          6 9 10 10 -1.</_>
        <_>
          6 14 10 5 2.</_></rects>
      <tilted>0</tilted></_>
    <_>
      <rects>
        <_>
          6 11 15 8 -1.</_>
        <_>
          6 15 15 4 2.</_></rects>
      <tilted>0</tilted></_>
    <_>
      <rects>
        <_>
          6 12 15 7 -1.</_>
        <_>
          11 12 5 7 2.</_></rects>
      <tilted>0</tilted></_>
    <_>
      <rects>
        <_>
          7 1 13 21 -1.</_>
        <_>
          7 8 13 7 2.</_></rects>
      <tilted>0</tilted></_>
    <_>
      <rects>
        <_>
          7 1 17 6 -1.</_>
        <_>
          7 4 17 3 2.</_></rects>
      <tilted>0</tilted></_>
    <_>
      <rects>
        <_>
          7 2 3 1 -1.</_>
        <_>
          8 2 1 1 2.</_></rects>
      <tilted>0</tilted></_>
    <_>
      <rects>
        <_>
          7 2 3 2 -1.</_>
        <_>
          7 3 3 1 2.</_></rects>
      <tilted>0</tilted></_>
    <_>
      <rects>
        <_>
          7 3 7 2 -1.</_>
        <_>
          7 4 7 1 2.</_></rects>
      <tilted>0</tilted></_>
    <_>
      <rects>
        <_>
          7 3 11 2 -1.</_>
        <_>
          7 4 11 1 2.</_></rects>
      <tilted>0</tilted></_>
    <_>
      <rects>
        <_>
          7 4 4 2 -1.</_>
        <_>
          7 5 4 1 2.</_></rects>
      <tilted>0</tilted></_>
    <_>
      <rects>
        <_>
          7 6 3 2 -1.</_>
        <_>
          7 7 3 1 2.</_></rects>
      <tilted>0</tilted></_>
    <_>
      <rects>
        <_>
          7 8 6 7 -1.</_>
        <_>
          9 8 2 7 2.</_></rects>
      <tilted>0</tilted></_>
    <_>
      <rects>
        <_>
          7 13 8 2 -1.</_>
        <_>
          11 13 4 2 2.</_></rects>
      <tilted>0</tilted></_>
    <_>
      <rects>
        <_>
          7 13 4 6 -1.</_>
        <_>
          7 16 4 3 2.</_></rects>
      <tilted>0</tilted></_>
    <_>
      <rects>
        <_>
          7 15 6 3 -1.</_>
        <_>
          10 15 3 3 2.</_></rects>
      <tilted>0</tilted></_>
    <_>
      <rects>
        <_>
          7 16 6 4 -1.</_>
        <_>
          10 16 3 4 2.</_></rects>
      <tilted>0</tilted></_>
    <_>
      <rects>
        <_>
          7 16 8 4 -1.</_>
        <_>
          11 16 4 4 2.</_></rects>
      <tilted>0</tilted></_>
    <_>
      <rects>
        <_>
          7 17 1 2 -1.</_>
        <_>
          7 18 1 1 2.</_></rects>
      <tilted>0</tilted></_>
    <_>
      <rects>
        <_>
          7 18 4 1 -1.</_>
        <_>
          9 18 2 1 2.</_></rects>
      <tilted>0</tilted></_>
    <_>
      <rects>
        <_>
          8 1 2 4 -1.</_>
        <_>
          8 3 2 2 2.</_></rects>
      <tilted>0</tilted></_>
    <_>
      <rects>
        <_>
          8 2 2 1 -1.</_>
        <_>
          9 2 1 1 2.</_></rects>
      <tilted>0</tilted></_>
    <_>
      <rects>
        <_>
          8 2 2 6 -1.</_>
        <_>
          8 5 2 3 2.</_></rects>
      <tilted>0</tilted></_>
    <_>
      <rects>
        <_>
          8 2 16 2 -1.</_>
        <_>
          8 2 8 1 2.</_>
        <_>
          16 3 8 1 2.</_></rects>
      <tilted>0</tilted></_>
    <_>
      <rects>
        <_>
          8 3 2 1 -1.</_>
        <_>
          9 3 1 1 2.</_></rects>
      <tilted>0</tilted></_>
    <_>
      <rects>
        <_>
          8 3 3 2 -1.</_>
        <_>
          9 3 1 2 2.</_></rects>
      <tilted>0</tilted></_>
    <_>
      <rects>
        <_>
          8 3 3 3 -1.</_>
        <_>
          9 3 1 3 2.</_></rects>
      <tilted>0</tilted></_>
    <_>
      <rects>
        <_>
          8 3 15 1 -1.</_>
        <_>
          13 3 5 1 2.</_></rects>
      <tilted>0</tilted></_>
    <_>
      <rects>
        <_>
          8 3 10 12 -1.</_>
        <_>
          8 3 5 6 2.</_>
        <_>
          13 9 5 6 2.</_></rects>
      <tilted>0</tilted></_>
    <_>
      <rects>
        <_>
          8 3 12 2 -1.</_>
        <_>
          8 4 12 1 2.</_></rects>
      <tilted>0</tilted></_>
    <_>
      <rects>
        <_>
          8 4 8 2 -1.</_>
        <_>
          8 5 8 1 2.</_></rects>
      <tilted>0</tilted></_>
    <_>
      <rects>
        <_>
          8 4 8 3 -1.</_>
        <_>
          8 5 8 1 2.</_></rects>
      <tilted>0</tilted></_>
    <_>
      <rects>
        <_>
          8 7 3 6 -1.</_>
        <_>
          8 10 3 3 2.</_></rects>
      <tilted>0</tilted></_>
    <_>
      <rects>
        <_>
          8 7 7 14 -1.</_>
        <_>
          8 14 7 7 2.</_></rects>
      <tilted>0</tilted></_>
    <_>
      <rects>
        <_>
          8 8 8 10 -1.</_>
        <_>
          12 8 4 10 2.</_></rects>
      <tilted>0</tilted></_>
    <_>
      <rects>
        <_>
          8 9 11 8 -1.</_>
        <_>
          8 13 11 4 2.</_></rects>
      <tilted>0</tilted></_>
    <_>
      <rects>
        <_>
          8 10 10 10 -1.</_>
        <_>
          8 15 10 5 2.</_></rects>
      <tilted>0</tilted></_>
    <_>
      <rects>
        <_>
          8 11 12 2 -1.</_>
        <_>
          8 11 6 1 2.</_>
        <_>
          14 12 6 1 2.</_></rects>
      <tilted>0</tilted></_>
    <_>
      <rects>
        <_>
          8 13 2 2 -1.</_>
        <_>
          9 13 1 2 2.</_></rects>
      <tilted>0</tilted></_>
    <_>
      <rects>
        <_>
          8 15 11 4 -1.</_>
        <_>
          8 17 11 2 2.</_></rects>
      <tilted>0</tilted></_>
    <_>
      <rects>
        <_>
          8 17 2 4 -1.</_>
        <_>
          9 17 1 4 2.</_></rects>
      <tilted>0</tilted></_>
    <_>
      <rects>
        <_>
          8 20 2 4 -1.</_>
        <_>
          8 22 2 2 2.</_></rects>
      <tilted>0</tilted></_>
    <_>
      <rects>
        <_>
          8 20 6 4 -1.</_>
        <_>
          8 20 3 2 2.</_>
        <_>
          11 22 3 2 2.</_></rects>
      <tilted>0</tilted></_>
    <_>
      <rects>
        <_>
          8 20 13 4 -1.</_>
        <_>
          8 22 13 2 2.</_></rects>
      <tilted>0</tilted></_>
    <_>
      <rects>
        <_>
          8 21 16 3 -1.</_>
        <_>
          16 21 8 3 2.</_></rects>
      <tilted>0</tilted></_>
    <_>
      <rects>
        <_>
          9 0 1 8 -1.</_>
        <_>
          9 4 1 4 2.</_></rects>
      <tilted>0</tilted></_>
    <_>
      <rects>
        <_>
          9 2 1 2 -1.</_>
        <_>
          9 3 1 1 2.</_></rects>
      <tilted>0</tilted></_>
    <_>
      <rects>
        <_>
          9 2 3 4 -1.</_>
        <_>
          9 4 3 2 2.</_></rects>
      <tilted>0</tilted></_>
    <_>
      <rects>
        <_>
          9 2 8 2 -1.</_>
        <_>
          9 3 8 1 2.</_></rects>
      <tilted>0</tilted></_>
    <_>
      <rects>
        <_>
          9 3 2 1 -1.</_>
        <_>
          10 3 1 1 2.</_></rects>
      <tilted>0</tilted></_>
    <_>
      <rects>
        <_>
          9 3 2 2 -1.</_>
        <_>
          10 3 1 2 2.</_></rects>
      <tilted>0</tilted></_>
    <_>
      <rects>
        <_>
          9 3 8 12 -1.</_>
        <_>
          9 3 4 6 2.</_>
        <_>
          13 9 4 6 2.</_></rects>
      <tilted>0</tilted></_>
    <_>
      <rects>
        <_>
          9 3 6 2 -1.</_>
        <_>
          9 4 6 1 2.</_></rects>
      <tilted>0</tilted></_>
    <_>
      <rects>
        <_>
          9 4 2 1 -1.</_>
        <_>
          10 4 1 1 2.</_></rects>
      <tilted>0</tilted></_>
    <_>
      <rects>
        <_>
          9 6 11 18 -1.</_>
        <_>
          9 15 11 9 2.</_></rects>
      <tilted>0</tilted></_>
    <_>
      <rects>
        <_>
          9 7 8 17 -1.</_>
        <_>
          13 7 4 17 2.</_></rects>
      <tilted>0</tilted></_>
    <_>
      <rects>
        <_>
          9 7 14 2 -1.</_>
        <_>
          9 7 7 1 2.</_>
        <_>
          16 8 7 1 2.</_></rects>
      <tilted>0</tilted></_>
    <_>
      <rects>
        <_>
          9 7 9 16 -1.</_>
        <_>
          9 15 9 8 2.</_></rects>
      <tilted>0</tilted></_>
    <_>
      <rects>
        <_>
          9 8 3 3 -1.</_>
        <_>
          9 9 3 1 2.</_></rects>
      <tilted>0</tilted></_>
    <_>
      <rects>
        <_>
          9 9 1 3 -1.</_>
        <_>
          9 10 1 1 2.</_></rects>
      <tilted>0</tilted></_>
    <_>
      <rects>
        <_>
          9 9 2 2 -1.</_>
        <_>
          10 9 1 2 2.</_></rects>
      <tilted>0</tilted></_>
    <_>
      <rects>
        <_>
          9 9 2 7 -1.</_>
        <_>
          10 9 1 7 2.</_></rects>
      <tilted>0</tilted></_>
    <_>
      <rects>
        <_>
          9 10 1 2 -1.</_>
        <_>
          9 11 1 1 2.</_></rects>
      <tilted>0</tilted></_>
    <_>
      <rects>
        <_>
          9 10 2 6 -1.</_>
        <_>
          9 10 1 3 2.</_>
        <_>
          10 13 1 3 2.</_></rects>
      <tilted>0</tilted></_>
    <_>
      <rects>
        <_>
          9 12 2 2 -1.</_>
        <_>
          9 12 1 1 2.</_>
        <_>
          10 13 1 1 2.</_></rects>
      <tilted>0</tilted></_>
    <_>
      <rects>
        <_>
          9 12 9 3 -1.</_>
        <_>
          12 12 3 3 2.</_></rects>
      <tilted>0</tilted></_>
    <_>
      <rects>
        <_>
          9 13 2 2 -1.</_>
        <_>
          10 13 1 2 2.</_></rects>
      <tilted>0</tilted></_>
    <_>
      <rects>
        <_>
          9 13 6 2 -1.</_>
        <_>
          9 14 6 1 2.</_></rects>
      <tilted>0</tilted></_>
    <_>
      <rects>
        <_>
          9 14 1 2 -1.</_>
        <_>
          9 15 1 1 2.</_></rects>
      <tilted>0</tilted></_>
    <_>
      <rects>
        <_>
          9 15 2 1 -1.</_>
        <_>
          10 15 1 1 2.</_></rects>
      <tilted>0</tilted></_>
    <_>
      <rects>
        <_>
          9 17 3 1 -1.</_>
        <_>
          10 17 1 1 2.</_></rects>
      <tilted>0</tilted></_>
    <_>
      <rects>
        <_>
          9 19 2 2 -1.</_>
        <_>
          9 20 2 1 2.</_></rects>
      <tilted>0</tilted></_>
    <_>
      <rects>
        <_>
          10 0 3 4 -1.</_>
        <_>
          11 0 1 4 2.</_></rects>
      <tilted>0</tilted></_>
    <_>
      <rects>
        <_>
          10 3 6 1 -1.</_>
        <_>
          13 3 3 1 2.</_></rects>
      <tilted>0</tilted></_>
    <_>
      <rects>
        <_>
          10 4 9 2 -1.</_>
        <_>
          10 5 9 1 2.</_></rects>
      <tilted>0</tilted></_>
    <_>
      <rects>
        <_>
          10 8 2 6 -1.</_>
        <_>
          10 8 1 3 2.</_>
        <_>
          11 11 1 3 2.</_></rects>
      <tilted>0</tilted></_>
    <_>
      <rects>
        <_>
          10 8 5 2 -1.</_>
        <_>
          10 9 5 1 2.</_></rects>
      <tilted>0</tilted></_>
    <_>
      <rects>
        <_>
          10 9 2 2 -1.</_>
        <_>
          11 9 1 2 2.</_></rects>
      <tilted>0</tilted></_>
    <_>
      <rects>
        <_>
          10 10 2 2 -1.</_>
        <_>
          11 10 1 2 2.</_></rects>
      <tilted>0</tilted></_>
    <_>
      <rects>
        <_>
          10 10 3 3 -1.</_>
        <_>
          11 10 1 3 2.</_></rects>
      <tilted>0</tilted></_>
    <_>
      <rects>
        <_>
          10 12 1 2 -1.</_>
        <_>
          10 13 1 1 2.</_></rects>
      <tilted>0</tilted></_>
    <_>
      <rects>
        <_>
          10 12 2 2 -1.</_>
        <_>
          11 12 1 2 2.</_></rects>
      <tilted>0</tilted></_>
    <_>
      <rects>
        <_>
          10 12 2 4 -1.</_>
        <_>
          10 12 1 2 2.</_>
        <_>
          11 14 1 2 2.</_></rects>
      <tilted>0</tilted></_>
    <_>
      <rects>
        <_>
          10 12 10 4 -1.</_>
        <_>
          15 12 5 4 2.</_></rects>
      <tilted>0</tilted></_>
    <_>
      <rects>
        <_>
          10 13 5 2 -1.</_>
        <_>
          10 14 5 1 2.</_></rects>
      <tilted>0</tilted></_>
    <_>
      <rects>
        <_>
          10 16 1 2 -1.</_>
        <_>
          10 17 1 1 2.</_></rects>
      <tilted>0</tilted></_>
    <_>
      <rects>
        <_>
          10 16 2 3 -1.</_>
        <_>
          11 16 1 3 2.</_></rects>
      <tilted>0</tilted></_>
    <_>
      <rects>
        <_>
          10 16 2 5 -1.</_>
        <_>
          11 16 1 5 2.</_></rects>
      <tilted>0</tilted></_>
    <_>
      <rects>
        <_>
          10 17 2 2 -1.</_>
        <_>
          11 17 1 2 2.</_></rects>
      <tilted>0</tilted></_>
    <_>
      <rects>
        <_>
          10 18 4 1 -1.</_>
        <_>
          12 18 2 1 2.</_></rects>
      <tilted>0</tilted></_>
    <_>
      <rects>
        <_>
          10 19 8 4 -1.</_>
        <_>
          10 19 4 2 2.</_>
        <_>
          14 21 4 2 2.</_></rects>
      <tilted>0</tilted></_>
    <_>
      <rects>
        <_>
          10 22 3 1 -1.</_>
        <_>
          11 22 1 1 2.</_></rects>
      <tilted>0</tilted></_>
    <_>
      <rects>
        <_>
          11 2 3 2 -1.</_>
        <_>
          11 3 3 1 2.</_></rects>
      <tilted>0</tilted></_>
    <_>
      <rects>
        <_>
          11 2 12 5 -1.</_>
        <_>
          17 2 6 5 2.</_></rects>
      <tilted>0</tilted></_>
    <_>
      <rects>
        <_>
          11 3 2 1 -1.</_>
        <_>
          12 3 1 1 2.</_></rects>
      <tilted>0</tilted></_>
    <_>
      <rects>
        <_>
          11 3 12 2 -1.</_>
        <_>
          11 3 6 1 2.</_>
        <_>
          17 4 6 1 2.</_></rects>
      <tilted>0</tilted></_>
    <_>
      <rects>
        <_>
          11 8 2 3 -1.</_>
        <_>
          12 8 1 3 2.</_></rects>
      <tilted>0</tilted></_>
    <_>
      <rects>
        <_>
          11 9 2 1 -1.</_>
        <_>
          12 9 1 1 2.</_></rects>
      <tilted>0</tilted></_>
    <_>
      <rects>
        <_>
          11 9 2 3 -1.</_>
        <_>
          12 9 1 3 2.</_></rects>
      <tilted>0</tilted></_>
    <_>
      <rects>
        <_>
          11 9 4 2 -1.</_>
        <_>
          11 9 2 1 2.</_>
        <_>
          13 10 2 1 2.</_></rects>
      <tilted>0</tilted></_>
    <_>
      <rects>
        <_>
          11 9 3 6 -1.</_>
        <_>
          11 12 3 3 2.</_></rects>
      <tilted>0</tilted></_>
    <_>
      <rects>
        <_>
          11 11 2 1 -1.</_>
        <_>
          12 11 1 1 2.</_></rects>
      <tilted>0</tilted></_>
    <_>
      <rects>
        <_>
          11 11 1 3 -1.</_>
        <_>
          11 12 1 1 2.</_></rects>
      <tilted>0</tilted></_>
    <_>
      <rects>
        <_>
          11 11 4 2 -1.</_>
        <_>
          11 12 4 1 2.</_></rects>
      <tilted>0</tilted></_>
    <_>
      <rects>
        <_>
          11 11 6 8 -1.</_>
        <_>
          11 15 6 4 2.</_></rects>
      <tilted>0</tilted></_>
    <_>
      <rects>
        <_>
          11 12 2 2 -1.</_>
        <_>
          11 13 2 1 2.</_></rects>
      <tilted>0</tilted></_>
    <_>
      <rects>
        <_>
          11 12 6 8 -1.</_>
        <_>
          11 16 6 4 2.</_></rects>
      <tilted>0</tilted></_>
    <_>
      <rects>
        <_>
          11 13 9 8 -1.</_>
        <_>
          11 17 9 4 2.</_></rects>
      <tilted>0</tilted></_>
    <_>
      <rects>
        <_>
          11 15 7 8 -1.</_>
        <_>
          11 19 7 4 2.</_></rects>
      <tilted>0</tilted></_>
    <_>
      <rects>
        <_>
          11 16 6 4 -1.</_>
        <_>
          11 16 3 2 2.</_>
        <_>
          14 18 3 2 2.</_></rects>
      <tilted>0</tilted></_>
    <_>
      <rects>
        <_>
          12 2 2 2 -1.</_>
        <_>
          12 3 2 1 2.</_></rects>
      <tilted>0</tilted></_>
    <_>
      <rects>
        <_>
          12 2 12 2 -1.</_>
        <_>
          12 2 6 1 2.</_>
        <_>
          18 3 6 1 2.</_></rects>
      <tilted>0</tilted></_>
    <_>
      <rects>
        <_>
          12 2 7 2 -1.</_>
        <_>
          12 3 7 1 2.</_></rects>
      <tilted>0</tilted></_>
    <_>
      <rects>
        <_>
          12 3 2 1 -1.</_>
        <_>
          13 3 1 1 2.</_></rects>
      <tilted>0</tilted></_>
    <_>
      <rects>
        <_>
          12 3 2 2 -1.</_>
        <_>
          13 3 1 2 2.</_></rects>
      <tilted>0</tilted></_>
    <_>
      <rects>
        <_>
          12 4 2 1 -1.</_>
        <_>
          13 4 1 1 2.</_></rects>
      <tilted>0</tilted></_>
    <_>
      <rects>
        <_>
          12 6 12 8 -1.</_>
        <_>
          12 6 6 4 2.</_>
        <_>
          18 10 6 4 2.</_></rects>
      <tilted>0</tilted></_>
    <_>
      <rects>
        <_>
          12 9 2 2 -1.</_>
        <_>
          12 9 1 1 2.</_>
        <_>
          13 10 1 1 2.</_></rects>
      <tilted>0</tilted></_>
    <_>
      <rects>
        <_>
          12 9 4 4 -1.</_>
        <_>
          12 9 2 2 2.</_>
        <_>
          14 11 2 2 2.</_></rects>
      <tilted>0</tilted></_>
    <_>
      <rects>
        <_>
          12 9 11 12 -1.</_>
        <_>
          12 15 11 6 2.</_></rects>
      <tilted>0</tilted></_>
    <_>
      <rects>
        <_>
          12 10 1 2 -1.</_>
        <_>
          12 11 1 1 2.</_></rects>
      <tilted>0</tilted></_>
    <_>
      <rects>
        <_>
          12 10 6 5 -1.</_>
        <_>
          15 10 3 5 2.</_></rects>
      <tilted>0</tilted></_>
    <_>
      <rects>
        <_>
          12 10 6 8 -1.</_>
        <_>
          15 10 3 8 2.</_></rects>
      <tilted>0</tilted></_>
    <_>
      <rects>
        <_>
          12 11 1 2 -1.</_>
        <_>
          12 12 1 1 2.</_></rects>
      <tilted>0</tilted></_>
    <_>
      <rects>
        <_>
          12 11 4 8 -1.</_>
        <_>
          12 15 4 4 2.</_></rects>
      <tilted>0</tilted></_>
    <_>
      <rects>
        <_>
          12 12 2 1 -1.</_>
        <_>
          13 12 1 1 2.</_></rects>
      <tilted>0</tilted></_>
    <_>
      <rects>
        <_>
          12 14 2 2 -1.</_>
        <_>
          13 14 1 2 2.</_></rects>
      <tilted>0</tilted></_>
    <_>
      <rects>
        <_>
          12 14 3 2 -1.</_>
        <_>
          12 15 3 1 2.</_></rects>
      <tilted>0</tilted></_>
    <_>
      <rects>
        <_>
          12 15 2 1 -1.</_>
        <_>
          13 15 1 1 2.</_></rects>
      <tilted>0</tilted></_>
    <_>
      <rects>
        <_>
          12 15 2 2 -1.</_>
        <_>
          13 15 1 2 2.</_></rects>
      <tilted>0</tilted></_>
    <_>
      <rects>
        <_>
          12 17 1 2 -1.</_>
        <_>
          12 18 1 1 2.</_></rects>
      <tilted>0</tilted></_>
    <_>
      <rects>
        <_>
          12 17 8 2 -1.</_>
        <_>
          12 17 4 1 2.</_>
        <_>
          16 18 4 1 2.</_></rects>
      <tilted>0</tilted></_>
    <_>
      <rects>
        <_>
          12 19 1 2 -1.</_>
        <_>
          12 20 1 1 2.</_></rects>
      <tilted>0</tilted></_>
    <_>
      <rects>
        <_>
          13 0 4 1 -1.</_>
        <_>
          15 0 2 1 2.</_></rects>
      <tilted>0</tilted></_>
    <_>
      <rects>
        <_>
          13 2 2 4 -1.</_>
        <_>
          13 4 2 2 2.</_></rects>
      <tilted>0</tilted></_>
    <_>
      <rects>
        <_>
          13 2 4 2 -1.</_>
        <_>
          13 3 4 1 2.</_></rects>
      <tilted>0</tilted></_>
    <_>
      <rects>
        <_>
          13 2 11 22 -1.</_>
        <_>
          13 13 11 11 2.</_></rects>
      <tilted>0</tilted></_>
    <_>
      <rects>
        <_>
          13 3 1 2 -1.</_>
        <_>
          13 4 1 1 2.</_></rects>
      <tilted>0</tilted></_>
    <_>
      <rects>
        <_>
          13 3 7 2 -1.</_>
        <_>
          13 4 7 1 2.</_></rects>
      <tilted>0</tilted></_>
    <_>
      <rects>
        <_>
          13 4 2 1 -1.</_>
        <_>
          14 4 1 1 2.</_></rects>
      <tilted>0</tilted></_>
    <_>
      <rects>
        <_>
          13 8 2 4 -1.</_>
        <_>
          14 8 1 4 2.</_></rects>
      <tilted>0</tilted></_>
    <_>
      <rects>
        <_>
          13 8 4 13 -1.</_>
        <_>
          15 8 2 13 2.</_></rects>
      <tilted>0</tilted></_>
    <_>
      <rects>
        <_>
          13 10 1 2 -1.</_>
        <_>
          13 11 1 1 2.</_></rects>
      <tilted>0</tilted></_>
    <_>
      <rects>
        <_>
          13 10 1 10 -1.</_>
        <_>
          13 15 1 5 2.</_></rects>
      <tilted>0</tilted></_>
    <_>
      <rects>
        <_>
          13 10 2 12 -1.</_>
        <_>
          14 10 1 12 2.</_></rects>
      <tilted>0</tilted></_>
    <_>
      <rects>
        <_>
          13 10 2 2 -1.</_>
        <_>
          13 11 2 1 2.</_></rects>
      <tilted>0</tilted></_>
