<?xml version="1.0"?>
<opencv_storage>
<stage7>
  <maxWeakCount>39</maxWeakCount>
  <stageThreshold>-1.6767686605453491e+00</stageThreshold>
  <weakClassifiers>
    <_>
      <internalNodes>
        0 -1 63118 -6.9057857617735863e-03</internalNodes>
      <leafValues>
        -5.6884056329727173e-01 -8.6484277248382568e-01</leafValues></_>
    <_>
      <internalNodes>
        0 -1 9939 -9.4032734632492065e-02</internalNodes>
      <leafValues>
        -2.1582297980785370e-01 -7.7995055913925171e-01</leafValues></_>
    <_>
      <internalNodes>
        0 -1 103269 -1.0119530372321606e-02</internalNodes>
      <leafValues>
        1.6056392341852188e-02 -8.3448928594589233e-01</leafValues></_>
    <_>
      <internalNodes>
        0 -1 37962 -2.2607870050705969e-04</internalNodes>
      <leafValues>
        -3.1754946708679199e-01 1.3466154038906097e-01</leafValues></_>
    <_>
      <internalNodes>
        0 -1 129169 -3.2537872903048992e-03</internalNodes>
      <leafValues>
        3.3686122298240662e-01 -1.0330472886562347e-01</leafValues></_>
    <_>
      <internalNodes>
        0 -1 100558 2.6376609457656741e-04</internalNodes>
      <leafValues>
        1.0239070653915405e-01 -3.4161448478698730e-01</leafValues></_>
    <_>
      <internalNodes>
        0 -1 114132 3.4023933112621307e-03</internalNodes>
      <leafValues>
        -1.5770345926284790e-01 2.1830601990222931e-01</leafValues></_>
    <_>
      <internalNodes>
        0 -1 96791 -1.0346495546400547e-03</internalNodes>
      <leafValues>
        2.5376787781715393e-01 -1.2440997362136841e-01</leafValues></_>
    <_>
      <internalNodes>
        0 -1 127530 -1.0264175944030285e-02</internalNodes>
      <leafValues>
        -9.0489989519119263e-01 2.9751392081379890e-02</leafValues></_>
    <_>
      <internalNodes>
        0 -1 59999 -3.0980599112808704e-03</internalNodes>
      <leafValues>
        1.5328155457973480e-01 -2.1107831597328186e-01</leafValues></_>
    <_>
      <internalNodes>
        0 -1 60423 -2.1700985729694366e-02</internalNodes>
      <leafValues>
        -8.6890709400177002e-01 3.3869348466396332e-02</leafValues></_>
    <_>
      <internalNodes>
        0 -1 113555 2.5287907919846475e-04</internalNodes>
      <leafValues>
        -1.5955072641372681e-01 1.7453573644161224e-01</leafValues></_>
    <_>
      <internalNodes>
        0 -1 40037 -2.1682083606719971e-02</internalNodes>
      <leafValues>
        -6.4621686935424805e-01 3.8144633173942566e-02</leafValues></_>
    <_>
      <internalNodes>
        0 -1 53081 -6.0305893421173096e-03</internalNodes>
      <leafValues>
        4.0627640485763550e-01 -7.7208779752254486e-02</leafValues></_>
    <_>
      <internalNodes>
        0 -1 134900 -6.8613351322710514e-03</internalNodes>
      <leafValues>
        4.0567487478256226e-01 -7.1707792580127716e-02</leafValues></_>
    <_>
      <internalNodes>
        0 -1 72048 -2.8076842427253723e-02</internalNodes>
      <leafValues>
        -4.9315225332975388e-02 5.4266536235809326e-01</leafValues></_>
    <_>
      <internalNodes>
        0 -1 92167 -2.8892926871776581e-02</internalNodes>
      <leafValues>
        1.3618251681327820e-01 -2.4647983908653259e-01</leafValues></_>
    <_>
      <internalNodes>
        0 -1 115873 4.0885999798774719e-02</internalNodes>
      <leafValues>
        5.5564641952514648e-02 -5.5704301595687866e-01</leafValues></_>
    <_>
      <internalNodes>
        0 -1 154643 9.6584344282746315e-04</internalNodes>
      <leafValues>
        -8.9504532516002655e-02 3.2764345407485962e-01</leafValues></_>
    <_>
      <internalNodes>
        0 -1 114360 -2.2351201623678207e-03</internalNodes>
      <leafValues>
        3.7307593971490860e-02 -7.9500657320022583e-01</leafValues></_>
    <_>
      <internalNodes>
        0 -1 24038 -1.0612826008582488e-04</internalNodes>
      <leafValues>
        -2.3615969717502594e-01 1.1410538852214813e-01</leafValues></_>
    <_>
      <internalNodes>
        0 -1 30240 1.8943715840578079e-02</internalNodes>
      <leafValues>
        -6.5232872962951660e-02 4.6020796895027161e-01</leafValues></_>
    <_>
      <internalNodes>
        0 -1 85860 -7.6904989778995514e-02</internalNodes>
      <leafValues>
        -8.5530750453472137e-02 3.0049157142639160e-01</leafValues></_>
    <_>
      <internalNodes>
        0 -1 112662 -3.3151730895042419e-02</internalNodes>
      <leafValues>
        2.5765055418014526e-01 -1.3133399188518524e-01</leafValues></_>
    <_>
      <internalNodes>
        0 -1 125734 -1.7795474827289581e-01</internalNodes>
      <leafValues>
        4.8060271143913269e-01 -8.6191765964031219e-02</leafValues></_>
    <_>
      <internalNodes>
        0 -1 147229 1.9354739924892783e-03</internalNodes>
      <leafValues>
        -8.0251999199390411e-02 3.4516537189483643e-01</leafValues></_>
    <_>
      <internalNodes>
        0 -1 103021 -5.8652693405747414e-03</internalNodes>
      <leafValues>
        2.7495396137237549e-01 -1.0077521950006485e-01</leafValues></_>
    <_>
      <internalNodes>
        0 -1 147885 2.5386437773704529e-02</internalNodes>
      <leafValues>
        -6.4666725695133209e-02 4.9046802520751953e-01</leafValues></_>
    <_>
      <internalNodes>
        0 -1 91889 -2.2103093215264380e-04</internalNodes>
      <leafValues>
        -3.0094346404075623e-01 9.3499422073364258e-02</leafValues></_>
    <_>
      <internalNodes>
        0 -1 150180 7.1331923827528954e-03</internalNodes>
      <leafValues>
        -1.2047744542360306e-01 2.4394559860229492e-01</leafValues></_>
    <_>
      <internalNodes>
        0 -1 113572 2.0398679189383984e-03</internalNodes>
      <leafValues>
        -1.1903413385152817e-01 2.6214617490768433e-01</leafValues></_>
    <_>
      <internalNodes>
        0 -1 132924 -8.9065194129943848e-02</internalNodes>
      <leafValues>
        7.1698254346847534e-01 -4.3435744941234589e-02</leafValues></_>
    <_>
      <internalNodes>
        0 -1 162269 -9.0160798281431198e-03</internalNodes>
      <leafValues>
        -4.4984170794487000e-01 7.3215901851654053e-02</leafValues></_>
    <_>
      <internalNodes>
        0 -1 138589 2.2317100316286087e-02</internalNodes>
      <leafValues>
        -1.1085789650678635e-01 2.5542318820953369e-01</leafValues></_>
    <_>
      <internalNodes>
        0 -1 91889 3.0020478880032897e-04</internalNodes>
      <leafValues>
        8.6686909198760986e-02 -3.2931339740753174e-01</leafValues></_>
    <_>
      <internalNodes>
        0 -1 104834 -1.6272272914648056e-02</internalNodes>
      <leafValues>
        2.6994999498128891e-02 -8.8359940052032471e-01</leafValues></_>
    <_>
      <internalNodes>
        0 -1 118625 -2.1945736370980740e-03</internalNodes>
      <leafValues>
        3.9639049768447876e-01 -6.7352883517742157e-02</leafValues></_>
    <_>
      <internalNodes>
        0 -1 51818 3.8644704967737198e-02</internalNodes>
      <leafValues>
        5.2108950912952423e-02 -5.2515733242034912e-01</leafValues></_>
    <_>
      <internalNodes>
        0 -1 151581 -1.7219283618032932e-03</internalNodes>
      <leafValues>
        2.5841492414474487e-01 -1.0112255811691284e-01</leafValues></_></weakClassifiers></stage7>
</opencv_storage>
