<?xml version="1.0"?>
<opencv_storage>
<stage2>
  <maxWeakCount>23</maxWeakCount>
  <stageThreshold>-1.9221180677413940e+00</stageThreshold>
  <weakClassifiers>
    <_>
      <internalNodes>
        0 -1 52503 -1.0636812075972557e-02</internalNodes>
      <leafValues>
        -3.4366926550865173e-01 -8.5409742593765259e-01</leafValues></_>
    <_>
      <internalNodes>
        0 -1 95976 -8.4460750222206116e-02</internalNodes>
      <leafValues>
        4.6058163046836853e-02 -5.7346647977828979e-01</leafValues></_>
    <_>
      <internalNodes>
        0 -1 122802 -5.9451228007674217e-03</internalNodes>
      <leafValues>
        5.4922252893447876e-01 -1.9492621719837189e-01</leafValues></_>
    <_>
      <internalNodes>
        0 -1 25360 -9.4458842650055885e-03</internalNodes>
      <leafValues>
        2.9322746396064758e-01 -2.5414216518402100e-01</leafValues></_>
    <_>
      <internalNodes>
        0 -1 112495 2.5578017812222242e-03</internalNodes>
      <leafValues>
        -1.3965226709842682e-01 4.9174681305885315e-01</leafValues></_>
    <_>
      <internalNodes>
        0 -1 27732 -4.3931275606155396e-01</internalNodes>
      <leafValues>
        9.2411130666732788e-02 -8.2250761985778809e-01</leafValues></_>
    <_>
      <internalNodes>
        0 -1 125416 1.8989740638062358e-03</internalNodes>
      <leafValues>
        -1.1037190258502960e-01 6.4139038324356079e-01</leafValues></_>
    <_>
      <internalNodes>
        0 -1 118678 -3.4188632853329182e-03</internalNodes>
      <leafValues>
        6.3138061761856079e-01 -1.2535938620567322e-01</leafValues></_>
    <_>
      <internalNodes>
        0 -1 32552 -2.5837916880846024e-02</internalNodes>
      <leafValues>
        -6.3197517395019531e-01 1.2084548175334930e-01</leafValues></_>
    <_>
      <internalNodes>
        0 -1 120624 -6.5537299960851669e-03</internalNodes>
      <leafValues>
        4.7847950458526611e-01 -1.4140225946903229e-01</leafValues></_>
    <_>
      <internalNodes>
        0 -1 113564 1.6081077046692371e-03</internalNodes>
      <leafValues>
        -1.6191877424716949e-01 3.8781458139419556e-01</leafValues></_>
    <_>
      <internalNodes>
        0 -1 113759 -7.1486947126686573e-04</internalNodes>
      <leafValues>
        3.7056624889373779e-01 -1.9246651232242584e-01</leafValues></_>
    <_>
      <internalNodes>
        0 -1 100414 5.8274902403354645e-03</internalNodes>
      <leafValues>
        -1.0103692114353180e-01 5.1710098981857300e-01</leafValues></_>
    <_>
      <internalNodes>
        0 -1 92429 1.0735685005784035e-02</internalNodes>
      <leafValues>
        -1.2665715813636780e-01 5.1029461622238159e-01</leafValues></_>
    <_>
      <internalNodes>
        0 -1 129379 -6.6779064945876598e-04</internalNodes>
      <leafValues>
        4.3574982881546021e-01 -1.5625391900539398e-01</leafValues></_>
    <_>
      <internalNodes>
        0 -1 14949 4.6582285314798355e-02</internalNodes>
      <leafValues>
        8.0815583467483521e-02 -8.3219528198242188e-01</leafValues></_>
    <_>
      <internalNodes>
        0 -1 132551 -9.7140611615031958e-04</internalNodes>
      <leafValues>
        3.2430636882781982e-01 -1.9163204729557037e-01</leafValues></_>
    <_>
      <internalNodes>
        0 -1 72751 -7.4218758381903172e-03</internalNodes>
      <leafValues>
        5.5897951126098633e-01 -1.1171573400497437e-01</leafValues></_>
    <_>
      <internalNodes>
        0 -1 143372 -1.4788606204092503e-03</internalNodes>
      <leafValues>
        3.4339210391044617e-01 -1.8403859436511993e-01</leafValues></_>
    <_>
      <internalNodes>
        0 -1 146384 -3.0753102153539658e-02</internalNodes>
      <leafValues>
        8.5170760750770569e-02 -7.3744601011276245e-01</leafValues></_>
    <_>
      <internalNodes>
        0 -1 126348 -7.8526674769818783e-04</internalNodes>
      <leafValues>
        3.6659631133079529e-01 -1.7937593162059784e-01</leafValues></_>
    <_>
      <internalNodes>
        0 -1 49386 8.3552692085504532e-03</internalNodes>
      <leafValues>
        -1.3436625897884369e-01 4.6866369247436523e-01</leafValues></_>
    <_>
      <internalNodes>
        0 -1 109538 -6.5290480852127075e-03</internalNodes>
      <leafValues>
        5.0225079059600830e-01 -1.1583530902862549e-01</leafValues></_></weakClassifiers></stage2>
</opencv_storage>
