<?xml version="1.0"?>
<opencv_storage>
<stage5>
  <maxWeakCount>34</maxWeakCount>
  <stageThreshold>-1.8507285118103027e+00</stageThreshold>
  <weakClassifiers>
    <_>
      <internalNodes>
        0 -1 62560 1.6896029934287071e-02</internalNodes>
      <leafValues>
        -8.5247147083282471e-01 -3.4736841917037964e-01</leafValues></_>
    <_>
      <internalNodes>
        0 -1 37898 -6.2630278989672661e-03</internalNodes>
      <leafValues>
        -2.7129355072975159e-01 -8.9633554220199585e-01</leafValues></_>
    <_>
      <internalNodes>
        0 -1 52731 1.7324423417448997e-02</internalNodes>
      <leafValues>
        -1.4485771954059601e-01 5.2064770460128784e-01</leafValues></_>
    <_>
      <internalNodes>
        0 -1 1106 -2.6003897655755281e-03</internalNodes>
      <leafValues>
        6.3165940344333649e-02 -8.8650053739547729e-01</leafValues></_>
    <_>
      <internalNodes>
        0 -1 29395 -1.6896847635507584e-02</internalNodes>
      <leafValues>
        5.9673297405242920e-01 -8.1271044909954071e-02</leafValues></_>
    <_>
      <internalNodes>
        0 -1 98500 9.2188864946365356e-03</internalNodes>
      <leafValues>
        -2.3104137182235718e-01 2.4576397240161896e-01</leafValues></_>
    <_>
      <internalNodes>
        0 -1 78411 -1.9879372417926788e-01</internalNodes>
      <leafValues>
        -2.3077711462974548e-01 2.3458476364612579e-01</leafValues></_>
    <_>
      <internalNodes>
        0 -1 430 5.7042002677917480e-02</internalNodes>
      <leafValues>
        4.4137220829725266e-02 -6.9533085823059082e-01</leafValues></_>
    <_>
      <internalNodes>
        0 -1 27053 9.8750053439289331e-04</internalNodes>
      <leafValues>
        -2.2283029556274414e-01 2.1791033446788788e-01</leafValues></_>
    <_>
      <internalNodes>
        0 -1 133308 7.4167584534734488e-04</internalNodes>
      <leafValues>
        -1.6942265629768372e-01 2.6459482312202454e-01</leafValues></_>
    <_>
      <internalNodes>
        0 -1 133114 5.3455086890608072e-04</internalNodes>
      <leafValues>
        -1.1417338997125626e-01 3.1511148810386658e-01</leafValues></_>
    <_>
      <internalNodes>
        0 -1 119795 -6.0458697378635406e-02</internalNodes>
      <leafValues>
        3.3261483907699585e-01 -1.4184863865375519e-01</leafValues></_>
    <_>
      <internalNodes>
        0 -1 134898 -5.5069276131689548e-03</internalNodes>
      <leafValues>
        4.5238384604454041e-01 -1.0957624763250351e-01</leafValues></_>
    <_>
      <internalNodes>
        0 -1 61270 -9.6040412783622742e-02</internalNodes>
      <leafValues>
        -6.2652164697647095e-01 6.4556166529655457e-02</leafValues></_>
    <_>
      <internalNodes>
        0 -1 126927 2.0488961599767208e-03</internalNodes>
      <leafValues>
        -1.2033063918352127e-01 3.8952013850212097e-01</leafValues></_>
    <_>
      <internalNodes>
        0 -1 131849 -1.6313630621880293e-03</internalNodes>
      <leafValues>
        3.2530310750007629e-01 -1.3854134082794189e-01</leafValues></_>
    <_>
      <internalNodes>
        0 -1 105366 -8.8036316446959972e-04</internalNodes>
      <leafValues>
        2.8731128573417664e-01 -1.2032909691333771e-01</leafValues></_>
    <_>
      <internalNodes>
        0 -1 69494 3.8305900525301695e-03</internalNodes>
      <leafValues>
        -9.5073290169239044e-02 3.6780768632888794e-01</leafValues></_>
    <_>
      <internalNodes>
        0 -1 122910 -1.3871572446078062e-04</internalNodes>
      <leafValues>
        -2.7968996763229370e-01 1.2526832520961761e-01</leafValues></_>
    <_>
      <internalNodes>
        0 -1 108719 1.1205563787370920e-03</internalNodes>
      <leafValues>
        1.1032260209321976e-01 -3.6594909429550171e-01</leafValues></_>
    <_>
      <internalNodes>
        0 -1 12104 -1.4302255585789680e-02</internalNodes>
      <leafValues>
        1.4764463901519775e-01 -2.7249160408973694e-01</leafValues></_>
    <_>
      <internalNodes>
        0 -1 24748 -3.9060868322849274e-02</internalNodes>
      <leafValues>
        -3.7654390931129456e-01 1.1295715719461441e-01</leafValues></_>
    <_>
      <internalNodes>
        0 -1 150673 -2.7082161977887154e-03</internalNodes>
      <leafValues>
        3.0767598748207092e-01 -1.2722450494766235e-01</leafValues></_>
    <_>
      <internalNodes>
        0 -1 162331 -2.4568554945290089e-03</internalNodes>
      <leafValues>
        5.1428660750389099e-02 -8.7463963031768799e-01</leafValues></_>
    <_>
      <internalNodes>
        0 -1 17917 -1.1639375239610672e-02</internalNodes>
      <leafValues>
        4.2589110136032104e-01 -9.8988488316535950e-02</leafValues></_>
    <_>
      <internalNodes>
        0 -1 2497 -6.0272854752838612e-03</internalNodes>
      <leafValues>
        3.8409832119941711e-01 -9.6133328974246979e-02</leafValues></_>
    <_>
      <internalNodes>
        0 -1 131803 1.6811012756079435e-03</internalNodes>
      <leafValues>
        -9.9854566156864166e-02 3.6569216847419739e-01</leafValues></_>
    <_>
      <internalNodes>
        0 -1 154987 5.3227511234581470e-03</internalNodes>
      <leafValues>
        -6.0261327773332596e-02 6.2465786933898926e-01</leafValues></_>
    <_>
      <internalNodes>
        0 -1 122754 -5.4848864674568176e-03</internalNodes>
      <leafValues>
        3.5909396409988403e-01 -9.1733530163764954e-02</leafValues></_>
    <_>
      <internalNodes>
        0 -1 106459 -1.6813370166346431e-03</internalNodes>
      <leafValues>
        3.9214006066322327e-01 -9.3775287270545959e-02</leafValues></_>
    <_>
      <internalNodes>
        0 -1 94552 -7.4640884995460510e-02</internalNodes>
      <leafValues>
        2.0368027687072754e-01 -2.0151627063751221e-01</leafValues></_>
    <_>
      <internalNodes>
        0 -1 95565 4.6197451651096344e-02</internalNodes>
      <leafValues>
        -7.7574059367179871e-02 5.2429854869842529e-01</leafValues></_>
    <_>
      <internalNodes>
        0 -1 111431 -3.4383111633360386e-03</internalNodes>
      <leafValues>
        4.6969214081764221e-01 -7.2680294513702393e-02</leafValues></_>
    <_>
      <internalNodes>
        0 -1 71555 4.5077325776219368e-03</internalNodes>
      <leafValues>
        7.5852461159229279e-02 -5.5322545766830444e-01</leafValues></_></weakClassifiers></stage5>
</opencv_storage>
